svm_type c_svc
kernel_type polynomial
degree 2
gamma 0.0049505
coef0 0
nr_class 5
total_sv 284
rho -1.59397 -1.35096 -1.20577 -0.34692 -7.5266 -0.505669 3.44913 2.04177 6.06788 5.12798
label 0 1 2 3 4
nr_sv 77 114 31 36 26
SV
0 1 0 0 1:0.03024 2:0.44606 3:0.43166 4:-0.37528 5:0.29068 6:0.23032 7:0.18125 8:0.40201 9:0.13518 10:-0.19562 11:0.30639 12:-0.13239 13:0.67897 14:0.42234 15:0.32637 16:-0.15281 17:0.37698 18:-0.23303 19:-0.33817 20:0.30588 21:0.44918 22:-0.83624 23:0.59146 24:0.24958 25:0.39986 26:-0.50172 27:-0.23544 28:-0.14696 29:-0.35144 30:-0.56852 31:0.08954 32:0.82612 33:-0.26586 34:0.3903 35:-0.036849 36:0.48257 37:0.71664 38:0.11004 39:-0.59354 40:-0.33216 41:-0.25736 42:-0.34531 43:-0.026326 44:-0.23747 45:0.00019656 46:-0.2748 47:0.38512 48:-0.39581 49:0.11404 50:-0.25174 51:-0.3247 52:0.089608 53:0.24929 54:1.5127 55:-0.19762 56:-2.8509 57:-0.53833 58:-0.47111 59:1.7859 60:0.78126 61:-0.12963 62:0.56077 63:0.32151 64:0.35571 65:0.84547 66:0.14931 67:0.11487 68:0.30625 69:0.54774 70:-0.50426 71:0.33824 72:-0.62043 73:-0.012869 74:0.066666 75:0.062731 76:-0.44534 77:0.15541 78:0.21801 79:-1.732 80:0.42054 81:0.36319 82:-0.072258 83:-0.74811 84:0.19888 85:-1.4461 86:-0.27576 87:0.26646 88:-0.57838 89:0.56151 90:-0.028701 91:-0.2466 92:-0.425 93:-0.57154 94:0.31939 95:-0.22075 96:0.46528 97:-0.16606 98:-0.79923 99:0.80849 100:0.37378 101:0.44234 102:0.48431 103:0.37284 104:-0.52861 105:0.21558 106:-0.4629 107:0.60307 108:0.71816 109:-0.41382 110:0.15157 111:-0.02936 112:-0.012905 113:0.24569 114:-0.02638 115:0.00028137 116:-0.41139 117:0.16784 118:-0.094465 119:-0.39723 120:0.25608 121:0.39144 122:-0.14293 123:0.1543 124:1.1509 125:0.51744 126:-0.4226 127:-0.07987 128:-0.77108 129:0.078489 130:-0.49301 131:-0.14824 132:0.16366 133:0.23525 134:-0.32219 135:-0.50613 136:0.68354 137:-0.39673 138:0.48081 139:-0.59104 140:-0.19323 141:-0.28618 142:-0.16291 143:0.48853 144:0.037437 145:0.039265 146:0.02585 147:0.47258 148:-1.3542 149:0.026895 150:-1.2436 151:-0.13284 152:-0.9807 153:0.39823 154:1.1715 155:-0.49008 156:-2.8411 157:-0.1709 158:-0.2184 159:2.0011 160:0.59575 161:-0.36505 162:0.7859 163:-0.45694 164:0.070966 165:0.18904 166:0.22404 167:0.060091 168:0.050271 169:0.82711 170:-0.24997 171:0.46051 172:-0.11298 173:-1.0912 174:0.14487 175:-0.83451 176:0.12452 177:-0.26793 178:0.02768 179:-1.4872 180:-0.1812 181:0.8862 182:-0.053061 183:-0.49827 184:0.31571 185:-1.1596 186:-0.18781 187:0.15968 188:-0.57221 189:-0.047602 190:-0.32081 191:-0.070405 192:0.36944 193:-0.42656 194:-0.080083 195:-0.87588 196:0.28568 197:0.099353 198:0.38253 199:0.47456 200:-0.6505 201:32 202:11 
0 0 0 0.56280710160433 1:0.03024 2:0.44606 3:0.43166 4:-0.37528 5:0.29068 6:0.23032 7:0.18125 8:0.40201 9:0.13518 10:-0.19562 11:0.30639 12:-0.13239 13:0.67897 14:0.42234 15:0.32637 16:-0.15281 17:0.37698 18:-0.23303 19:-0.33817 20:0.30588 21:0.44918 22:-0.83624 23:0.59146 24:0.24958 25:0.39986 26:-0.50172 27:-0.23544 28:-0.14696 29:-0.35144 30:-0.56852 31:0.08954 32:0.82612 33:-0.26586 34:0.3903 35:-0.036849 36:0.48257 37:0.71664 38:0.11004 39:-0.59354 40:-0.33216 41:-0.25736 42:-0.34531 43:-0.026326 44:-0.23747 45:0.00019656 46:-0.2748 47:0.38512 48:-0.39581 49:0.11404 50:-0.25174 51:-0.3247 52:0.089608 53:0.24929 54:1.5127 55:-0.19762 56:-2.8509 57:-0.53833 58:-0.47111 59:1.7859 60:0.78126 61:-0.12963 62:0.56077 63:0.32151 64:0.35571 65:0.84547 66:0.14931 67:0.11487 68:0.30625 69:0.54774 70:-0.50426 71:0.33824 72:-0.62043 73:-0.012869 74:0.066666 75:0.062731 76:-0.44534 77:0.15541 78:0.21801 79:-1.732 80:0.42054 81:0.36319 82:-0.072258 83:-0.74811 84:0.19888 85:-1.4461 86:-0.27576 87:0.26646 88:-0.57838 89:0.56151 90:-0.028701 91:-0.2466 92:-0.425 93:-0.57154 94:0.31939 95:-0.22075 96:0.46528 97:-0.16606 98:-0.79923 99:0.80849 100:0.37378 101:-0.20154 102:0.32739 103:0.0004758 104:-0.22452 105:0.4411 106:0.33599 107:0.40657 108:0.66527 109:-0.63852 110:0.044351 111:0.59747 112:-0.086113 113:0.39787 114:0.88041 115:0.17005 116:-0.14275 117:-0.1792 118:-0.11622 119:-0.56175 120:0.21378 121:0.95272 122:-0.27654 123:0.22567 124:0.4587 125:0.83297 126:-0.90489 127:-0.24019 128:-0.41669 129:-0.31842 130:0.33599 131:0.17516 132:0.24785 133:-0.36002 134:-0.11895 135:0.41239 136:0.19549 137:0.071716 138:0.31329 139:-0.36803 140:0.51546 141:-0.44828 142:-0.2977 143:0.51132 144:-0.24885 145:0.15397 146:0.28301 147:-0.12827 148:-0.58284 149:-0.16847 150:0.029912 151:-0.65801 152:-0.41906 153:-0.14271 154:1.4463 155:0.050253 156:-2.6762 157:0.064998 158:-0.18747 159:1.8076 160:1.5002 161:-0.68615 162:1.1491 163:0.36129 164:0.50156 165:0.33909 166:0.1437 167:0.41324 168:0.75141 169:0.0079898 170:-0.017592 171:-0.58609 172:-0.095992 173:0.12828 174:-0.60489 175:0.27201 176:0.38497 177:-0.28595 178:-0.50807 179:-1.1539 180:-0.065888 181:1.1285 182:0.28462 183:-0.24782 184:0.44859 185:-1.4726 186:-0.12682 187:0.18053 188:-0.047814 189:0.016943 190:-0.22543 191:-0.22757 192:0.29341 193:-0.86753 194:-0.015261 195:-1.2675 196:0.020593 197:-0.72345 198:0.023054 199:0.54016 200:-0.080331 201:32 202:1 
0.3156320354324512 0 0 0 1:-0.23769 2:0.59392 3:0.58697 4:-0.041788 5:-0.86803 6:-0.0051122 7:-0.4493 8:-0.027985 9:0.065674 10:-0.37901 11:0.31175 12:0.20528 13:0.431 14:-0.30913 15:-0.084523 16:0.056902 17:0.34704 18:0.32332 19:-0.60413 20:0.23123 21:-0.095476 22:-0.50009 23:0.024528 24:-0.5819 25:0.0075945 26:-0.13871 27:-0.26417 28:-0.7827 29:-0.24024 30:0.081827 31:-0.1867 32:0.95404 33:-0.057412 34:0.0089747 35:-0.20492 36:0.060902 37:-0.018265 38:0.3349 39:0.2373 40:-0.17605 41:-0.54013 42:-0.32745 43:-0.088963 44:-0.38417 45:-1.0903 46:0.17028 47:-0.019269 48:-0.35687 49:-0.0084772 50:-0.81525 51:0.23428 52:0.11118 53:0.42356 54:1.111 55:-0.35535 56:-2.3889 57:0.6203 58:-0.16352 59:1.445 60:0.58333 61:-0.22946 62:1.4375 63:-0.063997 64:-0.31511 65:1.0875 66:0.39221 67:0.73147 68:0.57236 69:-0.050781 70:-0.027736 71:0.41085 72:-0.25076 73:-0.26331 74:-0.38682 75:0.50667 76:-0.178 77:0.018334 78:-0.64042 79:-0.83078 80:0.26167 81:0.7191 82:0.1505 83:-0.67532 84:-0.1487 85:-2.1266 86:-0.58562 87:-0.12433 88:-0.32622 89:-1.0088 90:-0.65506 91:0.12711 92:0.227 93:-0.26423 94:-0.44033 95:-0.45518 96:-0.28702 97:-0.48125 98:-0.58302 99:0.20035 100:0.50308 101:0.13717 102:-0.54287 103:0.19419 104:-0.29953 105:0.17545 106:0.084672 107:0.67752 108:0.098295 109:-0.035611 110:0.21334 111:0.51663 112:0.20687 113:0.44082 114:-0.33655 115:0.56025 116:-0.6879 117:0.51957 118:-0.21258 119:-0.52708 120:-0.12249 121:0.33099 122:0.026448 123:0.59007 124:0.0065469 125:0.45405 126:-0.33884 127:-0.28261 128:-0.24633 129:0.10847 130:0.3164 131:-0.15368 132:0.73503 133:0.11858 134:0.70842 135:0.075081 136:0.29738 137:-0.11395 138:0.40807 139:-0.042531 140:-0.21301 141:-0.79849 142:-0.12703 143:0.752 144:-0.41746 145:0.46615 146:-0.039097 147:0.65961 148:-0.32336 149:0.442 150:-0.94137 151:-0.23125 152:-0.30604 153:0.79912 154:1.4581 155:-0.88199 156:-3.0041 157:-0.75243 158:-0.20503 159:1.1998 160:0.94881 161:0.30649 162:0.48411 163:-0.7572 164:0.65856 165:0.70107 166:-0.93141 167:0.52928 168:0.23323 169:0.18857 170:0.38691 171:0.011489 172:-0.31937 173:0.011858 174:0.22944 175:0.17764 176:0.16868 177:0.14003 178:0.58647 179:-1.5447 180:-0.064425 181:-0.00064711 182:0.13606 183:-0.32695 184:0.10043 185:-1.546 186:-0.5476 187:0.21027 188:-0.67195 189:-0.1597 190:-0.68271 191:-0.22043 192:-0.87088 193:-0.16248 194:0.83086 195:-0.23045 196:0.19864 197:-0.051892 198:-0.52057 199:0.25434 200:-0.23759 201:35 202:27 
1 1 0 0 1:0.073242 2:0.11134 3:0.62281 4:-0.35905 5:-0.70731 6:0.43756 7:0.12819 8:0.13478 9:0.34282 10:-0.31661 11:0.58363 12:-0.093659 13:0.5544 14:-0.038733 15:0.62641 16:-0.51071 17:-0.038933 18:0.026205 19:-0.49006 20:-0.17801 21:0.14975 22:-0.2256 23:0.37801 24:0.2171 25:0.75329 26:0.19316 27:-0.55328 28:-0.7362 29:0.33339 30:-0.23334 31:-0.098592 32:0.8545 33:-0.07557 34:-0.0081974 35:-0.49419 36:-0.075416 37:-0.13138 38:0.12209 39:0.034606 40:-0.4088 41:-0.69892 42:-0.49642 43:0.51698 44:-0.14214 45:0.041307 46:0.2919 47:0.21277 48:-0.62993 49:0.35931 50:-0.71405 51:-0.1883 52:-0.0034622 53:0.39229 54:1.4246 55:-0.16196 56:-2.8915 57:-0.53611 58:0.086307 59:1.6249 60:0.77567 61:-0.25686 62:1.0327 63:0.15666 64:0.47451 65:0.72194 66:-0.22697 67:0.53295 68:0.26461 69:0.29597 70:0.33638 71:-0.14925 72:-0.44578 73:0.18481 74:-0.52155 75:-0.22525 76:0.17517 77:0.053832 78:-0.46764 79:-1.0003 80:-0.1603 81:0.6986 82:-0.12426 83:-0.69526 84:0.081973 85:-1.3761 86:-0.49588 87:0.059994 88:-0.23035 89:-0.571 90:-0.61682 91:-0.041618 92:-0.63177 93:-0.31651 94:0.54411 95:-0.81656 96:0.0089473 97:0.033319 98:0.53417 99:-0.1646 100:-0.27516 101:0.30449 102:-0.19628 103:0.20225 104:-0.61687 105:-0.68484 106:-0.11887 107:0.081626 108:0.18906 109:0.22438 110:0.033433 111:0.24649 112:0.10935 113:0.054269 114:0.17402 115:-0.24224 116:-0.17824 117:0.15826 118:0.632 119:-0.85981 120:0.32896 121:0.3327 122:-0.063516 123:0.048307 124:-0.038986 125:-0.1584 126:-0.11808 127:-0.48404 128:-0.8478 129:0.58427 130:-0.46182 131:0.20295 132:0.86363 133:-0.10949 134:0.32921 135:-0.070915 136:0.59007 137:-0.027524 138:0.5797 139:0.0308 140:-0.038447 141:-0.5768 142:0.19498 143:-0.12224 144:-0.3847 145:-0.51111 146:-0.23528 147:0.49282 148:-0.794 149:0.08403 150:-1.5505 151:0.18491 152:0.26173 153:0.20716 154:0.91648 155:-0.0009998 156:-2.4516 157:-0.24172 158:-0.1973 159:1.2655 160:1.0784 161:-0.47938 162:0.95467 163:-0.41407 164:0.093636 165:1.0538 166:-0.099137 167:0.60201 168:0.69952 169:-0.50105 170:-0.049146 171:-0.23436 172:-0.49729 173:0.022624 174:-0.69352 175:0.0085958 176:0.10715 177:-0.30272 178:0.038256 179:-0.80478 180:0.043408 181:0.51528 182:-0.39395 183:-0.44114 184:-0.1367 185:-1.7644 186:-0.65928 187:0.34359 188:-0.088928 189:-0.29006 190:-0.071052 191:0.19439 192:-0.62846 193:-0.0088072 194:-0.0085936 195:-0.64929 196:-0.035085 197:-0.37907 198:-0.18385 199:-0.12432 200:0.27468 201:35 202:27 
0.5625712316860803 0.478673820765025 0 0 1:-0.23769 2:0.59392 3:0.58697 4:-0.041788 5:-0.86803 6:-0.0051122 7:-0.4493 8:-0.027985 9:0.065674 10:-0.37901 11:0.31175 12:0.20528 13:0.431 14:-0.30913 15:-0.084523 16:0.056902 17:0.34704 18:0.32332 19:-0.60413 20:0.23123 21:-0.095476 22:-0.50009 23:0.024528 24:-0.5819 25:0.0075945 26:-0.13871 27:-0.26417 28:-0.7827 29:-0.24024 30:0.081827 31:-0.1867 32:0.95404 33:-0.057412 34:0.0089747 35:-0.20492 36:0.060902 37:-0.018265 38:0.3349 39:0.2373 40:-0.17605 41:-0.54013 42:-0.32745 43:-0.088963 44:-0.38417 45:-1.0903 46:0.17028 47:-0.019269 48:-0.35687 49:-0.0084772 50:-0.81525 51:0.23428 52:0.11118 53:0.42356 54:1.111 55:-0.35535 56:-2.3889 57:0.6203 58:-0.16352 59:1.445 60:0.58333 61:-0.22946 62:1.4375 63:-0.063997 64:-0.31511 65:1.0875 66:0.39221 67:0.73147 68:0.57236 69:-0.050781 70:-0.027736 71:0.41085 72:-0.25076 73:-0.26331 74:-0.38682 75:0.50667 76:-0.178 77:0.018334 78:-0.64042 79:-0.83078 80:0.26167 81:0.7191 82:0.1505 83:-0.67532 84:-0.1487 85:-2.1266 86:-0.58562 87:-0.12433 88:-0.32622 89:-1.0088 90:-0.65506 91:0.12711 92:0.227 93:-0.26423 94:-0.44033 95:-0.45518 96:-0.28702 97:-0.48125 98:-0.58302 99:0.20035 100:0.50308 101:-0.49886 102:0.76602 103:0.89751 104:-0.78547 105:-0.6855 106:0.62609 107:-0.39655 108:0.34913 109:0.33334 110:-0.45233 111:0.61223 112:0.075948 113:0.22531 114:0.16365 115:0.28095 116:-0.24758 117:0.0099009 118:0.71108 119:-0.75859 120:0.87423 121:0.0031041 122:0.35796 123:-0.35233 124:-0.665 125:0.38447 126:0.62677 127:-0.51543 128:-0.96653 129:0.61517 130:-0.75455 131:-0.012359 132:1.1188 133:0.35719 134:0.0071769 135:0.20255 136:0.5011 137:-0.44046 138:0.10661 139:0.79391 140:-0.80948 141:-0.015601 142:-0.22888 143:-0.34198 144:-1.0065 145:-0.8763 146:0.15165 147:-0.085339 148:-0.6465 149:-0.16733 150:-1.4499 151:-0.0065905 152:0.0048113 153:-0.012445 154:1.0474 155:-0.19381 156:-2.5991 157:0.40528 158:0.43803 159:1.9332 160:0.45814 161:-0.048819 162:1.4308 163:-0.78639 164:-0.20792 165:1.09 166:0.24816 167:1.1487 168:0.51481 169:-0.21832 170:-0.4572 171:0.13888 172:-0.26369 173:0.13647 174:-0.60539 175:0.099586 176:0.23344 177:0.13647 178:-0.1846 179:-0.047734 180:-0.18392 181:0.52719 182:-0.2885 183:-1.0742 184:-0.0467 185:-1.8302 186:-0.21197 187:0.0298 188:-0.30964 189:-0.43386 190:-0.36463 191:-0.32738 192:-0.0093427 193:0.47205 194:-0.51691 195:-0.59176 196:-0.32343 197:0.20052 198:-0.41179 199:0.40539 200:0.78504 201:35 202:17 
1 1 0.1023932794344944 0 1:-0.1518 2:0.38409 3:0.8934 4:-0.42421 5:-0.92161 6:0.037988 7:-0.32026 8:0.0034119 9:0.22101 10:-0.22045 11:0.16661 12:0.21956 13:0.25325 14:-0.29267 15:0.10171 16:-0.075491 17:-0.060406 18:0.28194 19:-0.58519 20:0.48271 21:0.017504 22:-0.12086 23:-0.1099 24:-0.69554 25:0.156 26:0.070558 27:-0.15058 28:-0.81811 29:-0.18535 30:-0.36863 31:0.03165 32:0.76616 33:0.084041 34:0.0026928 35:-0.2744 36:0.21815 37:-0.035157 38:0.32569 39:0.10032 40:-0.60932 41:-0.70316 42:0.18299 43:0.33134 44:-0.12416 45:-0.90542 46:-0.039157 47:0.44719 48:-0.57338 49:-0.40172 50:-0.82234 51:0.5574 52:0.15101 53:0.24598 54:1.0113 55:-0.46626 56:-2.7133 57:0.43273 58:-0.16314 59:1.5828 60:0.55081 61:-0.24738 62:1.4184 63:-0.016867 64:-0.19368 65:1.009 66:-0.059864 67:0.91853 68:0.43022 69:-0.20624 70:0.076127 71:0.21595 72:-0.26834 73:-0.33342 74:-0.37151 75:0.45197 76:-0.08246 77:0.32984 78:-0.57376 79:-1.3042 80:0.27121 81:0.66277 82:-0.079626 83:-0.79167 84:-0.0053662 85:-1.7916 86:-0.33298 87:-0.30698 88:-0.3398 89:-0.55618 90:-0.69471 91:0.27427 92:-0.21898 93:-0.26714 94:0.0022561 95:-0.50178 96:-0.32775 97:-0.4567 98:-0.27123 99:0.22157 100:0.92112 101:0.062659 102:0.026003 103:1.122 104:-0.84123 105:-0.56907 106:0.86677 107:0.99235 108:-0.19032 109:-0.74226 110:-0.29547 111:0.037746 112:-0.71756 113:-0.44891 114:-0.65801 115:0.17469 116:0.50347 117:0.21268 118:1.0438 119:-0.60034 120:0.48838 121:0.16955 122:-0.070132 123:-0.070228 124:0.50193 125:1.3543 126:-0.27193 127:-0.16449 128:0.37399 129:-0.14291 130:0.19646 131:-0.80925 132:0.86245 133:-0.2118 134:-0.074321 135:0.38522 136:-0.34137 137:-1.2694 138:0.59967 139:-0.84746 140:-0.68818 141:0.68874 142:-0.19769 143:0.2064 144:-0.20387 145:-0.33651 146:0.093972 147:0.34192 148:-0.68139 149:0.61451 150:-0.88127 151:-0.13401 152:-0.088989 153:-0.098916 154:0.73405 155:0.33496 156:-3.1068 157:-0.22643 158:-0.21568 159:1.3375 160:1.5472 161:-1.2343 162:0.42964 163:-0.78932 164:-0.027462 165:0.34738 166:0.17338 167:0.24975 168:-0.010451 169:-0.71149 170:0.55568 171:-0.20869 172:0.074445 173:0.29833 174:-0.029668 175:-0.01595 176:0.46368 177:-0.80873 178:0.11564 179:-0.14607 180:0.73785 181:0.33548 182:0.18176 183:-1.2688 184:0.21146 185:-1.5877 186:0.10299 187:-0.55312 188:-0.12812 189:-0.035095 190:0.12023 191:-0.40742 192:0.21107 193:-0.4187 194:0.12999 195:-0.16549 196:-0.55023 197:-0.61101 198:0.46126 199:0.88781 200:-0.031292 201:33 202:11 
1 0 0 0 1:-0.1518 2:0.38409 3:0.8934 4:-0.42421 5:-0.92161 6:0.037988 7:-0.32026 8:0.0034119 9:0.22101 10:-0.22045 11:0.16661 12:0.21956 13:0.25325 14:-0.29267 15:0.10171 16:-0.075491 17:-0.060406 18:0.28194 19:-0.58519 20:0.48271 21:0.017504 22:-0.12086 23:-0.1099 24:-0.69554 25:0.156 26:0.070558 27:-0.15058 28:-0.81811 29:-0.18535 30:-0.36863 31:0.03165 32:0.76616 33:0.084041 34:0.0026928 35:-0.2744 36:0.21815 37:-0.035157 38:0.32569 39:0.10032 40:-0.60932 41:-0.70316 42:0.18299 43:0.33134 44:-0.12416 45:-0.90542 46:-0.039157 47:0.44719 48:-0.57338 49:-0.40172 50:-0.82234 51:0.5574 52:0.15101 53:0.24598 54:1.0113 55:-0.46626 56:-2.7133 57:0.43273 58:-0.16314 59:1.5828 60:0.55081 61:-0.24738 62:1.4184 63:-0.016867 64:-0.19368 65:1.009 66:-0.059864 67:0.91853 68:0.43022 69:-0.20624 70:0.076127 71:0.21595 72:-0.26834 73:-0.33342 74:-0.37151 75:0.45197 76:-0.08246 77:0.32984 78:-0.57376 79:-1.3042 80:0.27121 81:0.66277 82:-0.079626 83:-0.79167 84:-0.0053662 85:-1.7916 86:-0.33298 87:-0.30698 88:-0.3398 89:-0.55618 90:-0.69471 91:0.27427 92:-0.21898 93:-0.26714 94:0.0022561 95:-0.50178 96:-0.32775 97:-0.4567 98:-0.27123 99:0.22157 100:0.92112 101:-0.54264 102:0.41476 103:1.0322 104:-0.40244 105:0.46691 106:0.21816 107:-0.074864 108:0.47332 109:0.080996 110:-0.22079 111:-0.12808 112:-0.1144 113:0.50891 114:0.11568 115:0.028211 116:-0.3628 117:0.43823 118:0.047511 119:0.20282 120:0.49857 121:-0.10068 122:0.13269 123:0.16972 124:0.11653 125:0.31355 126:0.25713 127:0.092783 128:-0.56826 129:-0.52975 130:-0.051456 131:-0.67326 132:0.92533 133:0.2693 134:0.22734 135:0.66365 136:0.26221 137:0.19719 138:0.2609 139:0.18774 140:-0.3454 141:-0.42635 142:0.13975 143:0.56338 144:-0.56907 145:0.12398 146:-0.12894 147:0.72484 148:-0.26105 149:-0.26314 150:-0.43605 151:0.078908 152:-0.84146 153:0.51595 154:1.3997 155:-0.7646 156:-3.1453 157:-0.29202 158:-0.31247 159:1.5129 160:0.52435 161:0.21456 162:0.42452 163:-0.088411 164:-0.17805 165:1.1876 166:0.10579 167:0.76571 168:0.21914 169:0.35824 170:-0.11636 171:0.093261 172:-0.62483 173:-0.21898 174:0.21796 175:0.74056 176:-0.43735 177:0.14343 178:0.14719 179:-1.1605 180:-0.050508 181:0.12677 182:-0.014395 183:-0.98676 184:-0.091297 185:-1.2054 186:-0.11974 187:0.047847 188:-0.54001 189:0.52457 190:-0.70963 191:-0.32528 192:-0.1346 193:-0.41314 194:0.33435 195:-0.0072412 196:0.32253 197:-0.044219 198:-1.2969 199:0.76217 200:0.46349 201:33 202:31 
1 0.6743495794496024 0 0 1:-0.1518 2:0.38409 3:0.8934 4:-0.42421 5:-0.92161 6:0.037988 7:-0.32026 8:0.0034119 9:0.22101 10:-0.22045 11:0.16661 12:0.21956 13:0.25325 14:-0.29267 15:0.10171 16:-0.075491 17:-0.060406 18:0.28194 19:-0.58519 20:0.48271 21:0.017504 22:-0.12086 23:-0.1099 24:-0.69554 25:0.156 26:0.070558 27:-0.15058 28:-0.81811 29:-0.18535 30:-0.36863 31:0.03165 32:0.76616 33:0.084041 34:0.0026928 35:-0.2744 36:0.21815 37:-0.035157 38:0.32569 39:0.10032 40:-0.60932 41:-0.70316 42:0.18299 43:0.33134 44:-0.12416 45:-0.90542 46:-0.039157 47:0.44719 48:-0.57338 49:-0.40172 50:-0.82234 51:0.5574 52:0.15101 53:0.24598 54:1.0113 55:-0.46626 56:-2.7133 57:0.43273 58:-0.16314 59:1.5828 60:0.55081 61:-0.24738 62:1.4184 63:-0.016867 64:-0.19368 65:1.009 66:-0.059864 67:0.91853 68:0.43022 69:-0.20624 70:0.076127 71:0.21595 72:-0.26834 73:-0.33342 74:-0.37151 75:0.45197 76:-0.08246 77:0.32984 78:-0.57376 79:-1.3042 80:0.27121 81:0.66277 82:-0.079626 83:-0.79167 84:-0.0053662 85:-1.7916 86:-0.33298 87:-0.30698 88:-0.3398 89:-0.55618 90:-0.69471 91:0.27427 92:-0.21898 93:-0.26714 94:0.0022561 95:-0.50178 96:-0.32775 97:-0.4567 98:-0.27123 99:0.22157 100:0.92112 101:-0.54264 102:0.41476 103:1.0322 104:-0.40244 105:0.46691 106:0.21816 107:-0.074864 108:0.47332 109:0.080996 110:-0.22079 111:-0.12808 112:-0.1144 113:0.50891 114:0.11568 115:0.028211 116:-0.3628 117:0.43823 118:0.047511 119:0.20282 120:0.49857 121:-0.10068 122:0.13269 123:0.16972 124:0.11653 125:0.31355 126:0.25713 127:0.092783 128:-0.56826 129:-0.52975 130:-0.051456 131:-0.67326 132:0.92533 133:0.2693 134:0.22734 135:0.66365 136:0.26221 137:0.19719 138:0.2609 139:0.18774 140:-0.3454 141:-0.42635 142:0.13975 143:0.56338 144:-0.56907 145:0.12398 146:-0.12894 147:0.72484 148:-0.26105 149:-0.26314 150:-0.43605 151:0.078908 152:-0.84146 153:0.51595 154:1.3997 155:-0.7646 156:-3.1453 157:-0.29202 158:-0.31247 159:1.5129 160:0.52435 161:0.21456 162:0.42452 163:-0.088411 164:-0.17805 165:1.1876 166:0.10579 167:0.76571 168:0.21914 169:0.35824 170:-0.11636 171:0.093261 172:-0.62483 173:-0.21898 174:0.21796 175:0.74056 176:-0.43735 177:0.14343 178:0.14719 179:-1.1605 180:-0.050508 181:0.12677 182:-0.014395 183:-0.98676 184:-0.091297 185:-1.2054 186:-0.11974 187:0.047847 188:-0.54001 189:0.52457 190:-0.70963 191:-0.32528 192:-0.1346 193:-0.41314 194:0.33435 195:-0.0072412 196:0.32253 197:-0.044219 198:-1.2969 199:0.76217 200:0.46349 201:33 202:31 
0.03488374743331522 0 0 0 1:0.03024 2:0.44606 3:0.43166 4:-0.37528 5:0.29068 6:0.23032 7:0.18125 8:0.40201 9:0.13518 10:-0.19562 11:0.30639 12:-0.13239 13:0.67897 14:0.42234 15:0.32637 16:-0.15281 17:0.37698 18:-0.23303 19:-0.33817 20:0.30588 21:0.44918 22:-0.83624 23:0.59146 24:0.24958 25:0.39986 26:-0.50172 27:-0.23544 28:-0.14696 29:-0.35144 30:-0.56852 31:0.08954 32:0.82612 33:-0.26586 34:0.3903 35:-0.036849 36:0.48257 37:0.71664 38:0.11004 39:-0.59354 40:-0.33216 41:-0.25736 42:-0.34531 43:-0.026326 44:-0.23747 45:0.00019656 46:-0.2748 47:0.38512 48:-0.39581 49:0.11404 50:-0.25174 51:-0.3247 52:0.089608 53:0.24929 54:1.5127 55:-0.19762 56:-2.8509 57:-0.53833 58:-0.47111 59:1.7859 60:0.78126 61:-0.12963 62:0.56077 63:0.32151 64:0.35571 65:0.84547 66:0.14931 67:0.11487 68:0.30625 69:0.54774 70:-0.50426 71:0.33824 72:-0.62043 73:-0.012869 74:0.066666 75:0.062731 76:-0.44534 77:0.15541 78:0.21801 79:-1.732 80:0.42054 81:0.36319 82:-0.072258 83:-0.74811 84:0.19888 85:-1.4461 86:-0.27576 87:0.26646 88:-0.57838 89:0.56151 90:-0.028701 91:-0.2466 92:-0.425 93:-0.57154 94:0.31939 95:-0.22075 96:0.46528 97:-0.16606 98:-0.79923 99:0.80849 100:0.37378 101:0.27182 102:-0.13789 103:0.52866 104:-0.41515 105:0.72213 106:0.11053 107:0.70277 108:0.71258 109:0.11921 110:0.31379 111:-0.46986 112:-0.46333 113:-0.34445 114:-0.62702 115:0.94401 116:-0.59966 117:1.015 118:0.9132 119:0.29022 120:0.549 121:0.31366 122:0.35514 123:0.14291 124:0.74126 125:-0.21961 126:0.63789 127:-0.16848 128:-0.50919 129:0.41437 130:0.096626 131:-0.08471 132:0.24206 133:0.81778 134:0.50108 135:0.33384 136:0.36166 137:0.013693 138:-0.79653 139:0.80862 140:0.3342 141:0.093042 142:0.043636 143:-0.18852 144:-0.70933 145:-0.2986 146:-0.060553 147:0.27803 148:-0.55092 149:0.27603 150:0.97084 151:-0.21974 152:-0.32681 153:-0.36116 154:-0.53097 155:0.21985 156:-0.77277 157:0.61199 158:0.5522 159:0.53088 160:1.1206 161:-0.22216 162:0.35777 163:0.29872 164:0.15454 165:0.08567 166:-0.65394 167:0.51324 168:0.18386 169:-0.085988 170:0.65301 171:-0.10089 172:0.5178 173:-0.39299 174:-0.77716 175:0.25884 176:0.18149 177:0.12885 178:0.11707 179:-0.28991 180:0.59522 181:-0.5436 182:0.34562 183:-0.59025 184:-0.57019 185:0.096223 186:-0.33263 187:-0.63496 188:0.75438 189:0.1384 190:-0.28159 191:0.25833 192:-0.72796 193:-0.72366 194:0.24695 195:-0.75911 196:0.45824 197:0.081291 198:0.43288 199:0.13147 200:-0.21093 201:32 202:27 
1 1 0.2671187729675067 0 1:0.073242 2:0.11134 3:0.62281 4:-0.35905 5:-0.70731 6:0.43756 7:0.12819 8:0.13478 9:0.34282 10:-0.31661 11:0.58363 12:-0.093659 13:0.5544 14:-0.038733 15:0.62641 16:-0.51071 17:-0.038933 18:0.026205 19:-0.49006 20:-0.17801 21:0.14975 22:-0.2256 23:0.37801 24:0.2171 25:0.75329 26:0.19316 27:-0.55328 28:-0.7362 29:0.33339 30:-0.23334 31:-0.098592 32:0.8545 33:-0.07557 34:-0.0081974 35:-0.49419 36:-0.075416 37:-0.13138 38:0.12209 39:0.034606 40:-0.4088 41:-0.69892 42:-0.49642 43:0.51698 44:-0.14214 45:0.041307 46:0.2919 47:0.21277 48:-0.62993 49:0.35931 50:-0.71405 51:-0.1883 52:-0.0034622 53:0.39229 54:1.4246 55:-0.16196 56:-2.8915 57:-0.53611 58:0.086307 59:1.6249 60:0.77567 61:-0.25686 62:1.0327 63:0.15666 64:0.47451 65:0.72194 66:-0.22697 67:0.53295 68:0.26461 69:0.29597 70:0.33638 71:-0.14925 72:-0.44578 73:0.18481 74:-0.52155 75:-0.22525 76:0.17517 77:0.053832 78:-0.46764 79:-1.0003 80:-0.1603 81:0.6986 82:-0.12426 83:-0.69526 84:0.081973 85:-1.3761 86:-0.49588 87:0.059994 88:-0.23035 89:-0.571 90:-0.61682 91:-0.041618 92:-0.63177 93:-0.31651 94:0.54411 95:-0.81656 96:0.0089473 97:0.033319 98:0.53417 99:-0.1646 100:-0.27516 101:0.13717 102:-0.54287 103:0.19419 104:-0.29953 105:0.17545 106:0.084672 107:0.67752 108:0.098295 109:-0.035611 110:0.21334 111:0.51663 112:0.20687 113:0.44082 114:-0.33655 115:0.56025 116:-0.6879 117:0.51957 118:-0.21258 119:-0.52708 120:-0.12249 121:0.33099 122:0.026448 123:0.59007 124:0.0065469 125:0.45405 126:-0.33884 127:-0.28261 128:-0.24633 129:0.10847 130:0.3164 131:-0.15368 132:0.73503 133:0.11858 134:0.70842 135:0.075081 136:0.29738 137:-0.11395 138:0.40807 139:-0.042531 140:-0.21301 141:-0.79849 142:-0.12703 143:0.752 144:-0.41746 145:0.46615 146:-0.039097 147:0.65961 148:-0.32336 149:0.442 150:-0.94137 151:-0.23125 152:-0.30604 153:0.79912 154:1.4581 155:-0.88199 156:-3.0041 157:-0.75243 158:-0.20503 159:1.1998 160:0.94881 161:0.30649 162:0.48411 163:-0.7572 164:0.65856 165:0.70107 166:-0.93141 167:0.52928 168:0.23323 169:0.18857 170:0.38691 171:0.011489 172:-0.31937 173:0.011858 174:0.22944 175:0.17764 176:0.16868 177:0.14003 178:0.58647 179:-1.5447 180:-0.064425 181:-0.00064711 182:0.13606 183:-0.32695 184:0.10043 185:-1.546 186:-0.5476 187:0.21027 188:-0.67195 189:-0.1597 190:-0.68271 191:-0.22043 192:-0.87088 193:-0.16248 194:0.83086 195:-0.23045 196:0.19864 197:-0.051892 198:-0.52057 199:0.25434 200:-0.23759 201:35 202:27 
0.3971755071914597 0 0 0 1:0.11326 2:-0.23055 3:0.4684 4:-0.26068 5:0.12871 6:0.38373 7:-0.032314 8:-0.57986 9:0.18424 10:0.046796 11:-0.55893 12:0.27794 13:0.74838 14:0.33575 15:0.026834 16:-0.44505 17:1.4755 18:-0.14081 19:-0.31658 20:0.57686 21:-0.1844 22:-0.1037 23:-0.22519 24:0.34614 25:-0.2193 26:-0.23868 27:-0.12845 28:-0.77772 29:0.16957 30:0.029432 31:0.47705 32:0.85881 33:-0.053617 34:0.1077 35:0.09644 36:0.27325 37:0.044933 38:0.001331 39:0.050395 40:-0.48147 41:0.17561 42:0.19419 43:0.51495 44:-0.56149 45:0.11211 46:0.25591 47:0.029011 48:-0.0034461 49:-0.18478 50:-0.2065 51:0.10358 52:0.75532 53:0.94688 54:0.84278 55:-0.70051 56:-2.4433 57:-0.91913 58:-0.10451 59:0.90954 60:0.25491 61:0.21129 62:1.2046 63:-0.091615 64:0.30364 65:1.3768 66:-0.58152 67:0.38085 68:0.15504 69:0.20049 70:0.00073361 71:-0.623 72:0.20244 73:-0.30387 74:-0.81412 75:0.38805 76:0.21271 77:-0.041525 78:-0.045596 79:-1.1508 80:-0.25826 81:-0.089721 82:-1.1256 83:-0.25124 84:-0.2801 85:-1.0334 86:-0.16813 87:-0.40975 88:-1.0685 89:0.74311 90:0.083244 91:-0.33616 92:-0.08815 93:0.15401 94:0.47736 95:-0.18272 96:-0.25543 97:-0.89365 98:-0.46822 99:0.19834 100:-0.048772 101:0.68852 102:-0.040562 103:0.078841 104:-0.096505 105:0.063792 106:0.43078 107:0.079052 108:0.19267 109:-0.86272 110:-0.077568 111:-0.17929 112:-0.23759 113:0.19415 114:0.013707 115:-0.34486 116:-0.1214 117:-0.68963 118:0.83392 119:-0.58576 120:0.26303 121:-0.12745 122:-0.1649 123:0.073578 124:-0.35337 125:0.4657 126:0.82885 127:0.58185 128:-0.79107 129:0.45254 130:0.24874 131:-0.2354 132:0.15637 133:0.19272 134:0.41725 135:-0.34021 136:-0.037888 137:0.48652 138:0.78148 139:0.064896 140:-0.36681 141:0.50711 142:-0.068538 143:-0.72606 144:0.98376 145:-0.37664 146:0.31491 147:-0.48093 148:-0.11194 149:-0.029593 150:0.56237 151:-0.41128 152:-0.038546 153:0.30736 154:-0.7085 155:-0.0018859 156:-0.49461 157:-0.033032 158:0.019077 159:0.1707 160:0.29271 161:0.045142 162:0.23399 163:0.37898 164:0.72979 165:0.36589 166:-0.40726 167:0.92042 168:0.71759 169:-0.80112 170:1.0419 171:-0.34873 172:-0.32906 173:-0.9805 174:0.05485 175:-0.41265 176:-0.13465 177:-0.30488 178:1.001 179:0.16456 180:-0.20672 181:-0.067055 182:0.16284 183:-0.49579 184:-0.35503 185:0.28014 186:-0.33248 187:0.20437 188:-0.85995 189:-0.064024 190:-0.40311 191:0.34976 192:0.32716 193:-0.36634 194:0.32373 195:0.022148 196:0.34385 197:-0.70193 198:-0.68931 199:-1.0525 200:-0.25998 201:11 202:11 
0 0 0 0.02895575101710239 1:0.03024 2:0.44606 3:0.43166 4:-0.37528 5:0.29068 6:0.23032 7:0.18125 8:0.40201 9:0.13518 10:-0.19562 11:0.30639 12:-0.13239 13:0.67897 14:0.42234 15:0.32637 16:-0.15281 17:0.37698 18:-0.23303 19:-0.33817 20:0.30588 21:0.44918 22:-0.83624 23:0.59146 24:0.24958 25:0.39986 26:-0.50172 27:-0.23544 28:-0.14696 29:-0.35144 30:-0.56852 31:0.08954 32:0.82612 33:-0.26586 34:0.3903 35:-0.036849 36:0.48257 37:0.71664 38:0.11004 39:-0.59354 40:-0.33216 41:-0.25736 42:-0.34531 43:-0.026326 44:-0.23747 45:0.00019656 46:-0.2748 47:0.38512 48:-0.39581 49:0.11404 50:-0.25174 51:-0.3247 52:0.089608 53:0.24929 54:1.5127 55:-0.19762 56:-2.8509 57:-0.53833 58:-0.47111 59:1.7859 60:0.78126 61:-0.12963 62:0.56077 63:0.32151 64:0.35571 65:0.84547 66:0.14931 67:0.11487 68:0.30625 69:0.54774 70:-0.50426 71:0.33824 72:-0.62043 73:-0.012869 74:0.066666 75:0.062731 76:-0.44534 77:0.15541 78:0.21801 79:-1.732 80:0.42054 81:0.36319 82:-0.072258 83:-0.74811 84:0.19888 85:-1.4461 86:-0.27576 87:0.26646 88:-0.57838 89:0.56151 90:-0.028701 91:-0.2466 92:-0.425 93:-0.57154 94:0.31939 95:-0.22075 96:0.46528 97:-0.16606 98:-0.79923 99:0.80849 100:0.37378 101:0.60631 102:-0.37365 103:-0.31874 104:0.030332 105:0.18667 106:-1.1275 107:0.18433 108:0.16875 109:-0.20626 110:0.0087478 111:0.86313 112:-0.25189 113:0.40721 114:-0.51964 115:-0.79094 116:-0.72724 117:1.0097 118:-0.11107 119:0.42026 120:0.16993 121:0.076219 122:-0.11326 123:0.23855 124:0.41726 125:-0.57761 126:-0.14314 127:-0.19051 128:0.33742 129:-0.49969 130:-0.28331 131:0.25436 132:1.5028 133:-0.50439 134:-0.68896 135:-0.42216 136:0.46763 137:0.34395 138:0.00036374 139:0.26785 140:-0.71838 141:0.73955 142:-0.1161 143:-0.48352 144:-0.21261 145:-0.11326 146:0.59394 147:-0.26361 148:-0.25681 149:0.28549 150:-0.85409 151:-0.24955 152:0.087372 153:0.3393 154:0.86974 155:-0.37837 156:-2.4103 157:-0.67233 158:-0.39496 159:2.2253 160:0.444 161:0.73806 162:-0.23085 163:0.0014253 164:0.63356 165:0.2074 166:-0.351 167:0.66789 168:0.74544 169:0.42554 170:0.40073 171:-0.14964 172:0.37755 173:-0.66066 174:-0.47359 175:0.39401 176:-0.34221 177:0.4854 178:-0.34195 179:-1.7212 180:0.41925 181:0.75561 182:-0.29337 183:-0.35955 184:1.059 185:-1.3379 186:-0.85894 187:0.074892 188:-0.5918 189:-0.1528 190:-0.44238 191:0.096469 192:-0.538 193:-0.049649 194:-0.47351 195:-0.27107 196:0.62337 197:-0.11412 198:-0.35592 199:1.0019 200:0.14789 201:32 202:11 
0.1709229772555182 0 0 0.2556624537811931 1:0.03024 2:0.44606 3:0.43166 4:-0.37528 5:0.29068 6:0.23032 7:0.18125 8:0.40201 9:0.13518 10:-0.19562 11:0.30639 12:-0.13239 13:0.67897 14:0.42234 15:0.32637 16:-0.15281 17:0.37698 18:-0.23303 19:-0.33817 20:0.30588 21:0.44918 22:-0.83624 23:0.59146 24:0.24958 25:0.39986 26:-0.50172 27:-0.23544 28:-0.14696 29:-0.35144 30:-0.56852 31:0.08954 32:0.82612 33:-0.26586 34:0.3903 35:-0.036849 36:0.48257 37:0.71664 38:0.11004 39:-0.59354 40:-0.33216 41:-0.25736 42:-0.34531 43:-0.026326 44:-0.23747 45:0.00019656 46:-0.2748 47:0.38512 48:-0.39581 49:0.11404 50:-0.25174 51:-0.3247 52:0.089608 53:0.24929 54:1.5127 55:-0.19762 56:-2.8509 57:-0.53833 58:-0.47111 59:1.7859 60:0.78126 61:-0.12963 62:0.56077 63:0.32151 64:0.35571 65:0.84547 66:0.14931 67:0.11487 68:0.30625 69:0.54774 70:-0.50426 71:0.33824 72:-0.62043 73:-0.012869 74:0.066666 75:0.062731 76:-0.44534 77:0.15541 78:0.21801 79:-1.732 80:0.42054 81:0.36319 82:-0.072258 83:-0.74811 84:0.19888 85:-1.4461 86:-0.27576 87:0.26646 88:-0.57838 89:0.56151 90:-0.028701 91:-0.2466 92:-0.425 93:-0.57154 94:0.31939 95:-0.22075 96:0.46528 97:-0.16606 98:-0.79923 99:0.80849 100:0.37378 101:-0.41805 102:-0.28565 103:-0.043493 104:-0.94816 105:-0.25091 106:0.31438 107:1.11 108:-0.186 109:-0.17518 110:-0.4161 111:-0.85932 112:0.27906 113:-0.15684 114:-0.1822 115:1.335 116:-0.0090884 117:0.24783 118:-0.71095 119:0.43659 120:-0.78976 121:-0.038862 122:0.29346 123:0.28925 124:0.32292 125:0.50022 126:0.83113 127:-0.0060963 128:-0.021585 129:-0.94528 130:-0.63461 131:0.03351 132:-0.15358 133:0.58756 134:0.66632 135:0.21977 136:0.17628 137:-0.74767 138:-0.10978 139:0.20813 140:0.29995 141:-0.1527 142:0.28434 143:-1.1401 144:-0.28618 145:1.0225 146:0.9487 147:-0.017942 148:-0.45634 149:-0.83337 150:0.10848 151:-0.94551 152:0.33468 153:-0.35165 154:0.36068 155:-0.1141 156:-0.18686 157:0.51326 158:0.044056 159:0.65426 160:-0.056851 161:0.53568 162:0.55132 163:0.30061 164:0.57751 165:0.53263 166:1.1615 167:-0.5952 168:-0.71339 169:0.029204 170:0.12574 171:-0.25173 172:-1.1939 173:0.2267 174:0.30775 175:0.82806 176:-0.043834 177:-0.59451 178:-0.27239 179:-1.0329 180:1.2558 181:0.15886 182:-0.46322 183:-0.85971 184:0.60099 185:-0.646 186:0.023895 187:0.082313 188:0.012219 189:-0.10218 190:0.47591 191:0.096553 192:-0.76594 193:1.0165 194:-0.65673 195:0.36244 196:0.2389 197:-0.52541 198:-0.063422 199:0.6545 200:-0.22372 201:32 202:11 
1 1 0 0 1:0.073242 2:0.11134 3:0.62281 4:-0.35905 5:-0.70731 6:0.43756 7:0.12819 8:0.13478 9:0.34282 10:-0.31661 11:0.58363 12:-0.093659 13:0.5544 14:-0.038733 15:0.62641 16:-0.51071 17:-0.038933 18:0.026205 19:-0.49006 20:-0.17801 21:0.14975 22:-0.2256 23:0.37801 24:0.2171 25:0.75329 26:0.19316 27:-0.55328 28:-0.7362 29:0.33339 30:-0.23334 31:-0.098592 32:0.8545 33:-0.07557 34:-0.0081974 35:-0.49419 36:-0.075416 37:-0.13138 38:0.12209 39:0.034606 40:-0.4088 41:-0.69892 42:-0.49642 43:0.51698 44:-0.14214 45:0.041307 46:0.2919 47:0.21277 48:-0.62993 49:0.35931 50:-0.71405 51:-0.1883 52:-0.0034622 53:0.39229 54:1.4246 55:-0.16196 56:-2.8915 57:-0.53611 58:0.086307 59:1.6249 60:0.77567 61:-0.25686 62:1.0327 63:0.15666 64:0.47451 65:0.72194 66:-0.22697 67:0.53295 68:0.26461 69:0.29597 70:0.33638 71:-0.14925 72:-0.44578 73:0.18481 74:-0.52155 75:-0.22525 76:0.17517 77:0.053832 78:-0.46764 79:-1.0003 80:-0.1603 81:0.6986 82:-0.12426 83:-0.69526 84:0.081973 85:-1.3761 86:-0.49588 87:0.059994 88:-0.23035 89:-0.571 90:-0.61682 91:-0.041618 92:-0.63177 93:-0.31651 94:0.54411 95:-0.81656 96:0.0089473 97:0.033319 98:0.53417 99:-0.1646 100:-0.27516 101:0.30449 102:-0.19628 103:0.20225 104:-0.61687 105:-0.68484 106:-0.11887 107:0.081626 108:0.18906 109:0.22438 110:0.033433 111:0.24649 112:0.10935 113:0.054269 114:0.17402 115:-0.24224 116:-0.17824 117:0.15826 118:0.632 119:-0.85981 120:0.32896 121:0.3327 122:-0.063516 123:0.048307 124:-0.038986 125:-0.1584 126:-0.11808 127:-0.48404 128:-0.8478 129:0.58427 130:-0.46182 131:0.20295 132:0.86363 133:-0.10949 134:0.32921 135:-0.070915 136:0.59007 137:-0.027524 138:0.5797 139:0.0308 140:-0.038447 141:-0.5768 142:0.19498 143:-0.12224 144:-0.3847 145:-0.51111 146:-0.23528 147:0.49282 148:-0.794 149:0.08403 150:-1.5505 151:0.18491 152:0.26173 153:0.20716 154:0.91648 155:-0.0009998 156:-2.4516 157:-0.24172 158:-0.1973 159:1.2655 160:1.0784 161:-0.47938 162:0.95467 163:-0.41407 164:0.093636 165:1.0538 166:-0.099137 167:0.60201 168:0.69952 169:-0.50105 170:-0.049146 171:-0.23436 172:-0.49729 173:0.022624 174:-0.69352 175:0.0085958 176:0.10715 177:-0.30272 178:0.038256 179:-0.80478 180:0.043408 181:0.51528 182:-0.39395 183:-0.44114 184:-0.1367 185:-1.7644 186:-0.65928 187:0.34359 188:-0.088928 189:-0.29006 190:-0.071052 191:0.19439 192:-0.62846 193:-0.0088072 194:-0.0085936 195:-0.64929 196:-0.035085 197:-0.37907 198:-0.18385 199:-0.12432 200:0.27468 201:35 202:27 
0.1866229429841523 0 0 0 1:0.03024 2:0.44606 3:0.43166 4:-0.37528 5:0.29068 6:0.23032 7:0.18125 8:0.40201 9:0.13518 10:-0.19562 11:0.30639 12:-0.13239 13:0.67897 14:0.42234 15:0.32637 16:-0.15281 17:0.37698 18:-0.23303 19:-0.33817 20:0.30588 21:0.44918 22:-0.83624 23:0.59146 24:0.24958 25:0.39986 26:-0.50172 27:-0.23544 28:-0.14696 29:-0.35144 30:-0.56852 31:0.08954 32:0.82612 33:-0.26586 34:0.3903 35:-0.036849 36:0.48257 37:0.71664 38:0.11004 39:-0.59354 40:-0.33216 41:-0.25736 42:-0.34531 43:-0.026326 44:-0.23747 45:0.00019656 46:-0.2748 47:0.38512 48:-0.39581 49:0.11404 50:-0.25174 51:-0.3247 52:0.089608 53:0.24929 54:1.5127 55:-0.19762 56:-2.8509 57:-0.53833 58:-0.47111 59:1.7859 60:0.78126 61:-0.12963 62:0.56077 63:0.32151 64:0.35571 65:0.84547 66:0.14931 67:0.11487 68:0.30625 69:0.54774 70:-0.50426 71:0.33824 72:-0.62043 73:-0.012869 74:0.066666 75:0.062731 76:-0.44534 77:0.15541 78:0.21801 79:-1.732 80:0.42054 81:0.36319 82:-0.072258 83:-0.74811 84:0.19888 85:-1.4461 86:-0.27576 87:0.26646 88:-0.57838 89:0.56151 90:-0.028701 91:-0.2466 92:-0.425 93:-0.57154 94:0.31939 95:-0.22075 96:0.46528 97:-0.16606 98:-0.79923 99:0.80849 100:0.37378 101:0.27455 102:-0.0093143 103:0.50753 104:-0.43629 105:0.24152 106:0.049758 107:0.43214 108:-0.0030149 109:-0.3106 110:-0.099328 111:0.30188 112:-0.034161 113:0.014309 114:0.34199 115:0.23601 116:-0.15817 117:-0.17671 118:0.10018 119:-0.84132 120:-0.15641 121:0.63677 122:0.096451 123:0.1342 124:0.22373 125:0.31475 126:-0.20587 127:-0.47376 128:-0.031859 129:0.28289 130:-0.57511 131:0.077872 132:0.35836 133:0.048383 134:0.13052 135:-0.18549 136:0.18204 137:-0.10196 138:0.44239 139:-0.11828 140:-0.24453 141:-0.77997 142:-0.26628 143:0.32504 144:-0.083694 145:0.063506 146:-0.34725 147:0.30864 148:-0.13288 149:0.78177 150:-0.92581 151:0.079009 152:0.032607 153:0.20741 154:1.0779 155:-0.24841 156:-2.4312 157:-0.91718 158:-0.057247 159:1.2337 160:0.73618 161:-0.21069 162:0.86468 163:-0.18878 164:0.21423 165:0.35414 166:-0.095224 167:0.027859 168:0.089384 169:-0.1787 170:0.16137 171:0.094979 172:-0.07498 173:-0.46073 174:-0.66737 175:-0.10785 176:0.42372 177:-0.32372 178:0.045604 179:-1.0312 180:0.10406 181:0.57817 182:0.041607 183:-0.34047 184:-0.33961 185:-1.2705 186:-0.52908 187:-0.071663 188:-0.23485 189:-0.17893 190:-0.40208 191:-0.074056 192:-0.42312 193:-0.42343 194:0.55868 195:-0.72467 196:0.23548 197:-0.13035 198:0.36132 199:0.23673 200:0.066652 201:32 202:27 
0.1177051818332382 0 0 0 1:0.03024 2:0.44606 3:0.43166 4:-0.37528 5:0.29068 6:0.23032 7:0.18125 8:0.40201 9:0.13518 10:-0.19562 11:0.30639 12:-0.13239 13:0.67897 14:0.42234 15:0.32637 16:-0.15281 17:0.37698 18:-0.23303 19:-0.33817 20:0.30588 21:0.44918 22:-0.83624 23:0.59146 24:0.24958 25:0.39986 26:-0.50172 27:-0.23544 28:-0.14696 29:-0.35144 30:-0.56852 31:0.08954 32:0.82612 33:-0.26586 34:0.3903 35:-0.036849 36:0.48257 37:0.71664 38:0.11004 39:-0.59354 40:-0.33216 41:-0.25736 42:-0.34531 43:-0.026326 44:-0.23747 45:0.00019656 46:-0.2748 47:0.38512 48:-0.39581 49:0.11404 50:-0.25174 51:-0.3247 52:0.089608 53:0.24929 54:1.5127 55:-0.19762 56:-2.8509 57:-0.53833 58:-0.47111 59:1.7859 60:0.78126 61:-0.12963 62:0.56077 63:0.32151 64:0.35571 65:0.84547 66:0.14931 67:0.11487 68:0.30625 69:0.54774 70:-0.50426 71:0.33824 72:-0.62043 73:-0.012869 74:0.066666 75:0.062731 76:-0.44534 77:0.15541 78:0.21801 79:-1.732 80:0.42054 81:0.36319 82:-0.072258 83:-0.74811 84:0.19888 85:-1.4461 86:-0.27576 87:0.26646 88:-0.57838 89:0.56151 90:-0.028701 91:-0.2466 92:-0.425 93:-0.57154 94:0.31939 95:-0.22075 96:0.46528 97:-0.16606 98:-0.79923 99:0.80849 100:0.37378 101:-0.28926 102:-0.79551 103:-0.24423 104:0.054384 105:-0.33512 106:0.80339 107:0.33475 108:0.16169 109:0.35916 110:-1.1455 111:-1.1609 112:-0.34657 113:-0.40312 114:-0.95804 115:-0.066232 116:0.91652 117:-0.13694 118:0.26178 119:0.18259 120:0.16349 121:1.1449 122:0.68119 123:0.17254 124:-0.13283 125:1.6658 126:-0.27362 127:0.27041 128:-0.80412 129:-0.34192 130:-0.3545 131:0.74746 132:-0.0052504 133:-0.53224 134:0.38897 135:-0.68477 136:0.58517 137:0.16943 138:0.20882 139:-0.99748 140:-0.49819 141:0.77194 142:1.0486 143:-0.2986 144:0.15965 145:-0.74858 146:0.95992 147:-0.90377 148:0.16885 149:0.30727 150:0.63883 151:-0.57345 152:0.35445 153:0.48775 154:0.40275 155:-0.6134 156:0.50015 157:0.6895 158:0.17792 159:-0.74735 160:0.10614 161:0.29083 162:0.061933 163:-0.45049 164:0.28588 165:1.5486 166:0.24054 167:0.64139 168:-0.81568 169:-0.76315 170:0.91349 171:0.6202 172:-0.40934 173:-0.7548 174:0.51751 175:-0.65069 176:0.40449 177:0.89873 178:1.0462 179:-0.26439 180:0.772 181:0.20861 182:0.0055055 183:0.33893 184:-0.078977 185:0.076897 186:0.7396 187:0.65152 188:0.36934 189:0.44978 190:-0.40621 191:0.12125 192:0.80441 193:0.22664 194:0.57452 195:-0.050781 196:0.0017688 197:0.97726 198:-0.053665 199:-0.2713 200:0.99741 201:32 202:11 
0.04855694264354197 0 0 0.09988354730819392 1:0.03024 2:0.44606 3:0.43166 4:-0.37528 5:0.29068 6:0.23032 7:0.18125 8:0.40201 9:0.13518 10:-0.19562 11:0.30639 12:-0.13239 13:0.67897 14:0.42234 15:0.32637 16:-0.15281 17:0.37698 18:-0.23303 19:-0.33817 20:0.30588 21:0.44918 22:-0.83624 23:0.59146 24:0.24958 25:0.39986 26:-0.50172 27:-0.23544 28:-0.14696 29:-0.35144 30:-0.56852 31:0.08954 32:0.82612 33:-0.26586 34:0.3903 35:-0.036849 36:0.48257 37:0.71664 38:0.11004 39:-0.59354 40:-0.33216 41:-0.25736 42:-0.34531 43:-0.026326 44:-0.23747 45:0.00019656 46:-0.2748 47:0.38512 48:-0.39581 49:0.11404 50:-0.25174 51:-0.3247 52:0.089608 53:0.24929 54:1.5127 55:-0.19762 56:-2.8509 57:-0.53833 58:-0.47111 59:1.7859 60:0.78126 61:-0.12963 62:0.56077 63:0.32151 64:0.35571 65:0.84547 66:0.14931 67:0.11487 68:0.30625 69:0.54774 70:-0.50426 71:0.33824 72:-0.62043 73:-0.012869 74:0.066666 75:0.062731 76:-0.44534 77:0.15541 78:0.21801 79:-1.732 80:0.42054 81:0.36319 82:-0.072258 83:-0.74811 84:0.19888 85:-1.4461 86:-0.27576 87:0.26646 88:-0.57838 89:0.56151 90:-0.028701 91:-0.2466 92:-0.425 93:-0.57154 94:0.31939 95:-0.22075 96:0.46528 97:-0.16606 98:-0.79923 99:0.80849 100:0.37378 101:-0.44023 102:0.45736 103:-0.6029 104:-0.6273 105:0.43566 106:-0.17799 107:0.080052 108:0.09855 109:-0.20009 110:-0.60566 111:-0.74381 112:0.056852 113:-0.040937 114:0.14737 115:0.15777 116:-0.19791 117:0.30002 118:0.4531 119:-0.023518 120:0.036961 121:-0.84727 122:-0.26257 123:0.0056548 124:0.75951 125:0.63847 126:0.59346 127:0.21485 128:-0.43483 129:0.35815 130:-0.2894 131:-0.38664 132:-0.089948 133:0.45615 134:-0.72643 135:-0.42928 136:0.38265 137:0.30256 138:0.1653 139:0.089387 140:-0.075679 141:-0.11552 142:0.18516 143:-1.0224 144:0.48902 145:0.64013 146:0.17025 147:0.062338 148:-0.14731 149:0.66393 150:-0.50096 151:0.4073 152:-1.0031 153:0.57762 154:0.23459 155:0.045367 156:-0.59592 157:-0.046913 158:0.66337 159:0.1021 160:-0.17111 161:0.25691 162:1.2557 163:-0.40389 164:0.10001 165:1.0444 166:0.175 167:0.95551 168:-0.43472 169:0.056071 170:-0.18322 171:0.25166 172:-0.1809 173:-0.73693 174:-0.60381 175:-0.24547 176:-0.0667 177:-0.074084 178:-0.70567 179:-0.18722 180:0.18841 181:0.42762 182:0.028334 183:-0.98144 184:0.018876 185:0.36502 186:0.066222 187:0.47564 188:-0.56942 189:0.36493 190:0.19995 191:-0.018241 192:-0.078056 193:0.38818 194:-0.051405 195:-0.19516 196:0.67975 197:-0.43528 198:0.31625 199:-0.3446 200:0.37222 201:32 202:11 
0.0719567912915966 0 0 0.5608392711434432 1:-0.23769 2:0.59392 3:0.58697 4:-0.041788 5:-0.86803 6:-0.0051122 7:-0.4493 8:-0.027985 9:0.065674 10:-0.37901 11:0.31175 12:0.20528 13:0.431 14:-0.30913 15:-0.084523 16:0.056902 17:0.34704 18:0.32332 19:-0.60413 20:0.23123 21:-0.095476 22:-0.50009 23:0.024528 24:-0.5819 25:0.0075945 26:-0.13871 27:-0.26417 28:-0.7827 29:-0.24024 30:0.081827 31:-0.1867 32:0.95404 33:-0.057412 34:0.0089747 35:-0.20492 36:0.060902 37:-0.018265 38:0.3349 39:0.2373 40:-0.17605 41:-0.54013 42:-0.32745 43:-0.088963 44:-0.38417 45:-1.0903 46:0.17028 47:-0.019269 48:-0.35687 49:-0.0084772 50:-0.81525 51:0.23428 52:0.11118 53:0.42356 54:1.111 55:-0.35535 56:-2.3889 57:0.6203 58:-0.16352 59:1.445 60:0.58333 61:-0.22946 62:1.4375 63:-0.063997 64:-0.31511 65:1.0875 66:0.39221 67:0.73147 68:0.57236 69:-0.050781 70:-0.027736 71:0.41085 72:-0.25076 73:-0.26331 74:-0.38682 75:0.50667 76:-0.178 77:0.018334 78:-0.64042 79:-0.83078 80:0.26167 81:0.7191 82:0.1505 83:-0.67532 84:-0.1487 85:-2.1266 86:-0.58562 87:-0.12433 88:-0.32622 89:-1.0088 90:-0.65506 91:0.12711 92:0.227 93:-0.26423 94:-0.44033 95:-0.45518 96:-0.28702 97:-0.48125 98:-0.58302 99:0.20035 100:0.50308 101:-0.17047 102:0.4037 103:0.21069 104:-0.89495 105:-1.0974 106:0.26637 107:-0.66438 108:0.43423 109:0.43604 110:-0.096505 111:0.17299 112:-0.043644 113:0.25197 114:0.37532 115:-0.3742 116:-0.31528 117:0.15621 118:1.0254 119:-0.69791 120:0.85064 121:0.29749 122:0.2582 123:0.037544 124:-0.29904 125:-0.48232 126:0.24501 127:-0.42231 128:-1.213 129:0.65729 130:-0.66008 131:-0.20341 132:0.49007 133:0.21975 134:-0.015368 135:0.2685 136:0.75017 137:0.066525 138:0.22781 139:0.36977 140:-0.43185 141:-0.17637 142:0.19282 143:-0.5611 144:-0.83103 145:-0.93903 146:-0.037231 147:0.20521 148:-0.67886 149:-0.75606 150:-1.4499 151:0.024081 152:0.13546 153:-0.33894 154:0.9505 155:0.023876 156:-2.3589 157:0.25861 158:0.027507 159:1.7216 160:0.45003 161:-0.38897 162:1.1423 163:-0.7378 164:-0.57465 165:1.2876 166:0.6925 167:0.93593 168:0.57175 169:-0.23874 170:-0.48673 171:0.090969 172:-0.51457 173:0.21292 174:-0.85689 175:-0.055736 176:-0.20015 177:-0.3957 178:0.061003 179:-0.45949 180:-0.057818 181:0.7602 182:-0.55281 183:-0.96297 184:-0.086508 185:-2.036 186:-0.2284 187:0.061782 188:0.1475 189:-0.19664 190:-0.50653 191:-0.16682 192:-0.29811 193:0.10284 194:-0.4235 195:-0.71824 196:0.045687 197:-0.21338 198:-0.67179 199:0.31645 200:0.50594 201:35 202:6 
1 0 1 0.1570767301792975 1:0.26164 2:0.4472 3:-0.096845 4:-0.74067 5:0.20805 6:0.33434 7:-0.26796 8:0.022865 9:-0.37251 10:0.22637 11:-0.22139 12:0.20357 13:0.34547 14:0.17839 15:0.15189 16:-0.09791 17:0.95879 18:0.34033 19:-1.0375 20:0.33589 21:0.29997 22:0.33378 23:0.56341 24:-0.04013 25:0.27697 26:-0.56576 27:-0.37009 28:-0.74752 29:0.62616 30:-0.54981 31:0.26671 32:1.3877 33:-0.17649 34:0.40599 35:0.48077 36:0.18777 37:-0.25752 38:1.0871 39:0.55904 40:0.12204 41:-1.4921 42:0.17677 43:0.90724 44:-0.7636 45:0.1091 46:-0.024877 47:-0.14734 48:-0.55559 49:0.74541 50:-0.59346 51:-0.19779 52:-0.42991 53:0.30361 54:1.2408 55:-0.19161 56:-2.0891 57:-0.2374 58:-0.33597 59:0.60638 60:1.4537 61:0.46323 62:0.53161 63:0.067068 64:-0.043899 65:0.7305 66:-0.20189 67:1.0433 68:0.55102 69:-0.25149 70:0.45955 71:-0.043735 72:-0.70793 73:-0.70816 74:-0.38365 75:-0.28454 76:-0.24853 77:-0.45679 78:-0.21562 79:-0.87828 80:-0.55946 81:1.2574 82:0.37382 83:-0.84276 84:0.015869 85:-1.8082 86:-0.87081 87:-0.37524 88:0.033488 89:-0.46289 90:-0.9618 91:0.28619 92:-0.58053 93:0.46974 94:-0.089393 95:-1.1858 96:0.3699 97:-0.58993 98:-0.4503 99:0.49525 100:-0.20298 101:-0.54264 102:0.41476 103:1.0322 104:-0.40244 105:0.46691 106:0.21816 107:-0.074864 108:0.47332 109:0.080996 110:-0.22079 111:-0.12808 112:-0.1144 113:0.50891 114:0.11568 115:0.028211 116:-0.3628 117:0.43823 118:0.047511 119:0.20282 120:0.49857 121:-0.10068 122:0.13269 123:0.16972 124:0.11653 125:0.31355 126:0.25713 127:0.092783 128:-0.56826 129:-0.52975 130:-0.051456 131:-0.67326 132:0.92533 133:0.2693 134:0.22734 135:0.66365 136:0.26221 137:0.19719 138:0.2609 139:0.18774 140:-0.3454 141:-0.42635 142:0.13975 143:0.56338 144:-0.56907 145:0.12398 146:-0.12894 147:0.72484 148:-0.26105 149:-0.26314 150:-0.43605 151:0.078908 152:-0.84146 153:0.51595 154:1.3997 155:-0.7646 156:-3.1453 157:-0.29202 158:-0.31247 159:1.5129 160:0.52435 161:0.21456 162:0.42452 163:-0.088411 164:-0.17805 165:1.1876 166:0.10579 167:0.76571 168:0.21914 169:0.35824 170:-0.11636 171:0.093261 172:-0.62483 173:-0.21898 174:0.21796 175:0.74056 176:-0.43735 177:0.14343 178:0.14719 179:-1.1605 180:-0.050508 181:0.12677 182:-0.014395 183:-0.98676 184:-0.091297 185:-1.2054 186:-0.11974 187:0.047847 188:-0.54001 189:0.52457 190:-0.70963 191:-0.32528 192:-0.1346 193:-0.41314 194:0.33435 195:-0.0072412 196:0.32253 197:-0.044219 198:-1.2969 199:0.76217 200:0.46349 201:33 202:31 
0 0 0 0.7239988203023756 1:-0.52363 2:0.060306 3:0.26891 4:1.2823 5:-0.032065 6:0.099594 7:-0.59436 8:-0.40395 9:-0.0023645 10:0.53441 11:-0.35098 12:-0.5668 13:-0.15452 14:-0.226 15:-0.098779 16:0.16848 17:0.66849 18:0.80122 19:-0.83679 20:-0.075455 21:0.084722 22:-0.49656 23:0.11478 24:-0.42805 25:-0.44392 26:-0.37057 27:0.032718 28:-0.8306 29:0.00048268 30:-0.33019 31:0.21363 32:0.48378 33:-0.037616 34:-0.034075 35:0.089488 36:0.074708 37:0.27879 38:-0.088742 39:-0.015383 40:-0.086822 41:0.018664 42:-0.18702 43:-0.012157 44:-0.030974 45:-1.3285 46:0.14538 47:0.23792 48:0.25088 49:-0.87831 50:-0.30906 51:0.14392 52:0.15812 53:0.28233 54:0.82856 55:0.16965 56:-1.1403 57:0.78124 58:-0.29006 59:0.92557 60:0.38608 61:-0.57479 62:0.20411 63:-0.34254 64:-0.60486 65:1.2299 66:0.51671 67:0.21861 68:0.087304 69:-0.2971 70:-0.43866 71:0.019548 72:-0.038729 73:-0.0012539 74:-0.14905 75:0.57054 76:-1.0111 77:-0.56648 78:-0.52338 79:-0.29159 80:-0.7235 81:-0.57224 82:-0.5266 83:-0.56686 84:0.0078588 85:-0.92096 86:0.39226 87:-0.13353 88:-0.015724 89:-0.22641 90:-0.0081142 91:-0.65413 92:0.4314 93:-0.12843 94:-0.53428 95:0.28655 96:-0.36919 97:-0.45602 98:-0.32561 99:-0.21429 100:0.38517 101:-0.038194 102:-0.24487 103:0.72812 104:-0.39961 105:0.083172 106:0.043953 107:-0.39141 108:0.3344 109:-0.57545 110:0.087459 111:0.28787 112:-0.06731 113:0.30906 114:-0.26384 115:-0.13231 116:-0.20757 117:0.33395 118:-0.33848 119:-0.31743 120:-0.48336 121:0.1464 122:-0.37304 123:0.34577 124:0.052041 125:0.44946 126:-0.46971 127:0.02628 128:-0.54155 129:-0.15518 130:-0.14107 131:-0.039722 132:0.28277 133:0.14393 134:0.23464 135:-0.31021 136:0.086173 137:0.20397 138:0.52624 139:0.17164 140:-0.082378 141:-0.71787 142:-0.41531 143:0.20335 144:-0.12763 145:0.41367 146:0.55187 147:0.57908 148:-0.33477 149:-0.36559 150:-0.54857 151:-0.062892 152:0.26584 153:0.30205 154:0.99775 155:-0.80481 156:-3.0243 157:0.01254 158:-0.36942 159:2.2167 160:0.72201 161:-0.24978 162:0.92136 163:0.034514 164:0.46745 165:1.1079 166:-0.19358 167:-0.074575 168:0.23353 169:-0.052062 170:-0.22044 171:0.057162 172:-0.15806 173:-0.30798 174:-0.41625 175:0.37972 176:0.15006 177:-0.53212 178:-0.2055 179:-1.2526 180:0.071624 181:0.70565 182:0.49744 183:-0.42063 184:0.26148 185:-1.538 186:-0.30223 187:-0.073438 188:-0.28312 189:0.37104 190:-0.25217 191:0.016215 192:-0.017099 193:-0.38984 194:0.87424 195:-0.72569 196:-0.51058 197:-0.52028 198:-0.1459 199:0.8278 200:0.27062 201:26 202:2 
0 0 0 0.03483587432712746 1:0.03024 2:0.44606 3:0.43166 4:-0.37528 5:0.29068 6:0.23032 7:0.18125 8:0.40201 9:0.13518 10:-0.19562 11:0.30639 12:-0.13239 13:0.67897 14:0.42234 15:0.32637 16:-0.15281 17:0.37698 18:-0.23303 19:-0.33817 20:0.30588 21:0.44918 22:-0.83624 23:0.59146 24:0.24958 25:0.39986 26:-0.50172 27:-0.23544 28:-0.14696 29:-0.35144 30:-0.56852 31:0.08954 32:0.82612 33:-0.26586 34:0.3903 35:-0.036849 36:0.48257 37:0.71664 38:0.11004 39:-0.59354 40:-0.33216 41:-0.25736 42:-0.34531 43:-0.026326 44:-0.23747 45:0.00019656 46:-0.2748 47:0.38512 48:-0.39581 49:0.11404 50:-0.25174 51:-0.3247 52:0.089608 53:0.24929 54:1.5127 55:-0.19762 56:-2.8509 57:-0.53833 58:-0.47111 59:1.7859 60:0.78126 61:-0.12963 62:0.56077 63:0.32151 64:0.35571 65:0.84547 66:0.14931 67:0.11487 68:0.30625 69:0.54774 70:-0.50426 71:0.33824 72:-0.62043 73:-0.012869 74:0.066666 75:0.062731 76:-0.44534 77:0.15541 78:0.21801 79:-1.732 80:0.42054 81:0.36319 82:-0.072258 83:-0.74811 84:0.19888 85:-1.4461 86:-0.27576 87:0.26646 88:-0.57838 89:0.56151 90:-0.028701 91:-0.2466 92:-0.425 93:-0.57154 94:0.31939 95:-0.22075 96:0.46528 97:-0.16606 98:-0.79923 99:0.80849 100:0.37378 101:0.26572 102:0.034857 103:0.49055 104:-0.67402 105:0.32883 106:0.99917 107:-1.0305 108:0.69492 109:0.34358 110:0.85792 111:-0.43804 112:-0.81835 113:0.26868 114:-0.25083 115:0.15466 116:-0.83224 117:1.1727 118:-0.18604 119:-0.52929 120:0.17653 121:0.80747 122:-0.14031 123:-0.024031 124:-0.0061158 125:-0.60217 126:-0.67171 127:0.20698 128:-0.50948 129:-0.3299 130:-0.39454 131:-0.45927 132:-0.28931 133:0.78811 134:0.44483 135:-0.48697 136:-0.2363 137:-0.015081 138:0.16606 139:-0.034172 140:0.084049 141:-0.086082 142:-0.9015 143:-0.20199 144:-0.56048 145:0.86435 146:0.32742 147:0.38184 148:-0.24334 149:0.59723 150:0.17464 151:-0.44756 152:-0.33477 153:0.32423 154:1.0231 155:-0.54946 156:-2.852 157:-0.5764 158:-0.3576 159:1.4104 160:0.30757 161:-0.38852 162:0.74302 163:-0.40562 164:0.091479 165:0.1746 166:-0.19251 167:0.16341 168:0.18197 169:-0.3522 170:0.29123 171:-0.2839 172:-0.73045 173:-0.1555 174:-0.38138 175:0.39395 176:-0.49008 177:1.0277 178:0.0028462 179:-1.4342 180:-0.12607 181:0.33338 182:0.48741 183:-0.9977 184:0.40783 185:-0.79581 186:0.49322 187:-0.48803 188:-0.29408 189:0.5714 190:-0.46724 191:1.0987 192:-0.60398 193:-0.46683 194:0.14795 195:-1.3415 196:0.7188 197:-0.28589 198:0.39124 199:0.98232 200:0.069209 201:32 202:11 
0.8339100093801353 0.1605209586802454 0 0 1:-0.23769 2:0.59392 3:0.58697 4:-0.041788 5:-0.86803 6:-0.0051122 7:-0.4493 8:-0.027985 9:0.065674 10:-0.37901 11:0.31175 12:0.20528 13:0.431 14:-0.30913 15:-0.084523 16:0.056902 17:0.34704 18:0.32332 19:-0.60413 20:0.23123 21:-0.095476 22:-0.50009 23:0.024528 24:-0.5819 25:0.0075945 26:-0.13871 27:-0.26417 28:-0.7827 29:-0.24024 30:0.081827 31:-0.1867 32:0.95404 33:-0.057412 34:0.0089747 35:-0.20492 36:0.060902 37:-0.018265 38:0.3349 39:0.2373 40:-0.17605 41:-0.54013 42:-0.32745 43:-0.088963 44:-0.38417 45:-1.0903 46:0.17028 47:-0.019269 48:-0.35687 49:-0.0084772 50:-0.81525 51:0.23428 52:0.11118 53:0.42356 54:1.111 55:-0.35535 56:-2.3889 57:0.6203 58:-0.16352 59:1.445 60:0.58333 61:-0.22946 62:1.4375 63:-0.063997 64:-0.31511 65:1.0875 66:0.39221 67:0.73147 68:0.57236 69:-0.050781 70:-0.027736 71:0.41085 72:-0.25076 73:-0.26331 74:-0.38682 75:0.50667 76:-0.178 77:0.018334 78:-0.64042 79:-0.83078 80:0.26167 81:0.7191 82:0.1505 83:-0.67532 84:-0.1487 85:-2.1266 86:-0.58562 87:-0.12433 88:-0.32622 89:-1.0088 90:-0.65506 91:0.12711 92:0.227 93:-0.26423 94:-0.44033 95:-0.45518 96:-0.28702 97:-0.48125 98:-0.58302 99:0.20035 100:0.50308 101:-0.26847 102:-0.30749 103:-0.75673 104:0.32973 105:0.22546 106:-0.40292 107:0.6223 108:-0.42856 109:-0.6684 110:0.32939 111:0.31736 112:-0.38669 113:0.29961 114:-0.36871 115:-0.45273 116:-0.25535 117:0.25188 118:-0.0032813 119:0.27637 120:0.74924 121:0.17065 122:-0.018781 123:-0.21234 124:-0.25669 125:0.13987 126:0.33305 127:-0.18986 128:-0.3692 129:0.16882 130:0.23346 131:-0.86944 132:0.78655 133:0.22877 134:-0.38862 135:0.9763 136:0.013193 137:-0.271 138:-0.194 139:-0.61353 140:-0.32239 141:-0.14717 142:0.46188 143:0.31203 144:0.15117 145:0.32225 146:0.04616 147:0.73004 148:-0.51666 149:0.23323 150:-0.66356 151:-0.81567 152:-0.30122 153:0.34549 154:0.60319 155:0.16379 156:-2.2836 157:-0.11357 158:-0.02349 159:1.2836 160:-0.11282 161:-0.59347 162:0.52919 163:0.068556 164:0.18114 165:1.1023 166:-0.41444 167:-0.11257 168:0.24082 169:0.1464 170:-0.44054 171:0.27522 172:0.028147 173:-0.55462 174:0.27277 175:-0.0051221 176:-0.28974 177:-0.44825 178:-0.084315 179:-0.96462 180:-0.44159 181:0.65465 182:0.61602 183:0.21202 184:0.42775 185:-1.7566 186:-0.060606 187:0.15328 188:-0.24477 189:-0.60813 190:-0.78311 191:-0.078845 192:0.27272 193:-0.065389 194:0.40623 195:-0.45893 196:0.062501 197:-0.69355 198:0.31038 199:0.353 200:0.057032 201:35 202:6 
0.8333194092574552 0 0 1 1:-0.037608 2:0.15683 3:0.4796 4:-0.03854 5:-0.1747 6:0.15475 7:-0.38234 8:0.24254 9:-0.16832 10:-0.3267 11:-0.064252 12:-0.023559 13:-0.19514 14:-0.015289 15:-0.14977 16:-0.010363 17:0.06325 18:0.18948 19:-0.55627 20:0.88542 21:0.041148 22:-0.5068 23:-0.32173 24:-0.11402 25:-0.095954 26:-0.12424 27:-0.32039 28:-0.37202 29:0.34554 30:-0.53887 31:-0.010369 32:0.65003 33:-0.11295 34:-0.05049 35:-0.10818 36:0.45634 37:-0.028582 38:0.33935 39:-0.56663 40:-0.035071 41:-0.23191 42:-0.37484 43:0.069394 44:-0.78161 45:-0.48102 46:-0.26895 47:-0.0034449 48:-0.25412 49:-0.20661 50:-0.68642 51:-0.16513 52:0.18474 53:-0.18152 54:0.77072 55:0.26822 56:-2.4549 57:0.20531 58:-0.47267 59:1.7923 60:0.015615 61:0.070412 62:0.39826 63:-0.44114 64:0.12505 65:0.74115 66:0.0047398 67:0.29138 68:0.92495 69:-0.47189 70:-0.48156 71:-0.19627 72:-0.30952 73:-0.024238 74:-0.92727 75:0.42467 76:0.43885 77:-0.61606 78:-0.50453 79:-0.68953 80:-0.3344 81:0.81046 82:-0.35985 83:-0.74034 84:-0.42343 85:-1.5018 86:0.0016398 87:0.43831 88:0.88079 89:0.012386 90:-0.20478 91:0.042448 92:-0.74691 93:0.077445 94:-0.79721 95:-0.73456 96:-0.59776 97:-0.024764 98:-0.018467 99:0.10175 100:0.41201 101:-0.27086 102:0.044006 103:-0.02026 104:-0.17395 105:0.6444 106:0.71213 107:0.3551 108:0.47138 109:-0.29637 110:0.54427 111:-0.72294 112:-0.0047612 113:0.040611 114:0.043236 115:0.29729 116:0.10725 117:0.40156 118:-0.53662 119:0.033382 120:0.067396 121:0.64556 122:-0.085523 123:0.14103 124:0.094539 125:0.74947 126:-0.194 127:-0.68739 128:-0.41741 129:-0.22807 130:0.12 131:-0.48999 132:0.80945 133:0.045138 134:-0.11898 135:0.20161 136:0.39276 137:-0.20121 138:0.31354 139:0.75304 140:0.25907 141:-0.11566 142:-0.029319 143:0.93499 144:-0.36067 145:0.5242 146:0.23706 147:0.52715 148:0.22869 149:-0.51958 150:-0.79349 151:-0.20368 152:-0.50187 153:0.18748 154:0.94282 155:-0.44834 156:-3.6792 157:0.044183 158:-0.26751 159:2.1997 160:0.241 161:-0.033425 162:0.69553 163:-0.64472 164:-0.0072277 165:0.89575 166:0.20015 167:0.46493 168:0.61933 169:-0.1066 170:0.08691 171:-0.4623 172:0.18262 173:-0.15849 174:0.020791 175:0.19373 176:0.063426 177:-0.31673 178:-0.48177 179:-1.3848 180:0.13669 181:0.96859 182:0.049965 183:-0.2738 184:-0.035686 185:-1.0577 186:-0.24467 187:0.90366 188:-0.12442 189:0.080776 190:-0.83401 191:0.57201 192:0.088945 193:-0.42532 194:-0.018253 195:-0.079995 196:-0.28581 197:-0.01089 198:-0.4923 199:0.63687 200:0.23642 201:26 202:2 
0 0 0.01712984520990368 0 1:0.051044 2:0.59824 3:0.31195 4:-0.066913 5:-0.29111 6:0.46091 7:-0.27781 8:0.44026 9:0.044429 10:-0.22897 11:0.20414 12:-0.1458 13:0.77876 14:0.28536 15:0.32293 16:-0.42382 17:0.46866 18:-0.068769 19:-0.57332 20:0.02484 21:0.18865 22:-0.25324 23:0.63914 24:-0.22605 25:-0.094128 26:-0.33878 27:-0.027334 28:-0.97173 29:0.22157 30:-0.45171 31:-0.42427 32:0.11795 33:0.21835 34:0.59762 35:0.083504 36:0.03862 37:0.21675 38:-0.011594 39:0.15081 40:-0.33137 41:-0.34324 42:-0.36142 43:0.17621 44:-0.47619 45:0.11287 46:0.063469 47:0.23026 48:-0.10055 49:0.4327 50:0.14464 51:-0.3986 52:-0.26808 53:0.3182 54:1.187 55:-0.53799 56:-2.7762 57:-0.36056 58:-0.52403 59:1.4961 60:0.5852 61:-0.45835 62:0.90748 63:0.19071 64:-0.083699 65:1.1361 66:0.18972 67:0.66498 68:0.19299 69:0.52448 70:0.42907 71:-0.12227 72:-0.63509 73:0.34567 74:-0.27887 75:0.20995 76:-0.10872 77:0.57247 78:-0.14223 79:-0.76988 80:0.20549 81:0.697 82:0.031403 83:-0.82066 84:0.00055807 85:-0.95539 86:-0.24125 87:-0.14125 88:-0.39647 89:-0.15662 90:-0.1668 91:0.16383 92:-0.2677 93:-0.077713 94:0.46474 95:-0.82278 96:0.18345 97:-0.33744 98:0.058495 99:0.72002 100:0.34357 101:-0.14465 102:0.45569 103:0.36791 104:-0.15371 105:-0.24924 106:0.023382 107:-0.49633 108:0.7635 109:0.17548 110:-0.13153 111:-0.16344 112:0.30627 113:0.67051 114:0.18166 115:-0.58268 116:-0.5376 117:0.44708 118:0.94162 119:-1.2843 120:-0.064698 121:-0.10656 122:-0.42947 123:-0.088656 124:-0.34172 125:-0.27717 126:-0.13614 127:-0.089953 128:-0.50132 129:0.35623 130:-0.548 131:0.18154 132:0.76949 133:-0.36552 134:0.13581 135:0.72536 136:0.43869 137:0.25955 138:-0.13256 139:-0.089914 140:-0.32257 141:-0.6465 142:-0.19589 143:0.17078 144:-0.5189 145:-0.3015 146:-0.352 147:-0.036406 148:-0.048106 149:-0.23344 150:-0.94624 151:0.43288 152:-0.08738 153:-0.12172 154:1.5126 155:0.36404 156:-1.751 157:0.13985 158:-0.26788 159:1.6746 160:0.49022 161:0.082945 162:0.25022 163:-0.86962 164:-0.38062 165:1.4138 166:0.41063 167:-0.16657 168:0.7149 169:-0.35369 170:-0.85971 171:0.26598 172:-0.67462 173:-0.14195 174:-0.30387 175:0.25637 176:-0.17626 177:-0.62252 178:-0.0084697 179:-0.73859 180:-0.25932 181:0.71669 182:-0.17958 183:-0.91174 184:-0.12506 185:-1.6834 186:-0.273 187:0.34076 188:-0.057118 189:0.043511 190:-0.095046 191:-0.7693 192:-0.10728 193:-0.10741 194:-0.22176 195:-0.48938 196:0.26463 197:0.31139 198:-0.85594 199:0.52813 200:0.27255 201:35 202:10 
1 0.5524100241160995 0.1710046103327311 0 1:-0.1518 2:0.38409 3:0.8934 4:-0.42421 5:-0.92161 6:0.037988 7:-0.32026 8:0.0034119 9:0.22101 10:-0.22045 11:0.16661 12:0.21956 13:0.25325 14:-0.29267 15:0.10171 16:-0.075491 17:-0.060406 18:0.28194 19:-0.58519 20:0.48271 21:0.017504 22:-0.12086 23:-0.1099 24:-0.69554 25:0.156 26:0.070558 27:-0.15058 28:-0.81811 29:-0.18535 30:-0.36863 31:0.03165 32:0.76616 33:0.084041 34:0.0026928 35:-0.2744 36:0.21815 37:-0.035157 38:0.32569 39:0.10032 40:-0.60932 41:-0.70316 42:0.18299 43:0.33134 44:-0.12416 45:-0.90542 46:-0.039157 47:0.44719 48:-0.57338 49:-0.40172 50:-0.82234 51:0.5574 52:0.15101 53:0.24598 54:1.0113 55:-0.46626 56:-2.7133 57:0.43273 58:-0.16314 59:1.5828 60:0.55081 61:-0.24738 62:1.4184 63:-0.016867 64:-0.19368 65:1.009 66:-0.059864 67:0.91853 68:0.43022 69:-0.20624 70:0.076127 71:0.21595 72:-0.26834 73:-0.33342 74:-0.37151 75:0.45197 76:-0.08246 77:0.32984 78:-0.57376 79:-1.3042 80:0.27121 81:0.66277 82:-0.079626 83:-0.79167 84:-0.0053662 85:-1.7916 86:-0.33298 87:-0.30698 88:-0.3398 89:-0.55618 90:-0.69471 91:0.27427 92:-0.21898 93:-0.26714 94:0.0022561 95:-0.50178 96:-0.32775 97:-0.4567 98:-0.27123 99:0.22157 100:0.92112 101:0.32396 102:0.5981 103:1.2378 104:0.21162 105:0.32223 106:-0.933 107:-0.36429 108:-0.46309 109:-0.19794 110:0.19983 111:0.13876 112:-0.58763 113:0.09724 114:0.28784 115:-0.19291 116:0.25512 117:0.35596 118:-0.42983 119:-0.75188 120:-0.10966 121:1.104 122:0.21188 123:0.74477 124:0.42071 125:-0.18735 126:0.24202 127:0.46133 128:-1.1325 129:0.4886 130:-0.029384 131:0.33875 132:0.53299 133:-0.25313 134:0.11577 135:-0.08838 136:0.62731 137:-0.10941 138:-0.16472 139:0.3472 140:0.56492 141:-0.74448 142:-0.9998 143:0.22918 144:0.85612 145:0.75357 146:-0.048493 147:-0.31846 148:-0.83283 149:-0.74052 150:-1.6537 151:0.38901 152:-0.35591 153:0.60411 154:0.81544 155:-0.0021813 156:-2.2976 157:0.063694 158:-0.97151 159:2.2791 160:0.43913 161:-0.11079 162:0.27595 163:1.0608 164:-0.012467 165:-0.24295 166:-0.28065 167:-0.2669 168:0.99697 169:0.093197 170:0.6632 171:0.025634 172:-0.65658 173:-0.72335 174:-0.16165 175:0.16611 176:0.452 177:0.57443 178:0.24713 179:-1.5824 180:0.059356 181:1.3486 182:-0.041878 183:-0.18273 184:0.51898 185:-0.83905 186:-0.3887 187:0.43774 188:0.099288 189:0.29579 190:-1.0994 191:-0.10151 192:0.18774 193:-0.65817 194:-0.23207 195:-0.74606 196:0.24291 197:0.12691 198:0.10485 199:0.49419 200:0.30868 201:33 202:6 
0.2519878396937186 0 0 0 1:0.1845 2:0.51461 3:0.65342 4:-0.42173 5:-0.8143 6:0.050029 7:-0.4187 8:-0.041949 9:0.47558 10:-0.54651 11:0.43974 12:0.26532 13:0.21381 14:-0.071729 15:-0.17475 16:-0.18682 17:-0.12933 18:0.47129 19:-0.62407 20:0.54606 21:-0.042295 22:-0.11002 23:-0.31637 24:-0.62179 25:-0.024532 26:0.25281 27:-0.018242 28:-0.85596 29:0.096847 30:0.039929 31:-0.027546 32:0.68141 33:0.18839 34:0.012421 35:-0.18829 36:0.33089 37:-0.020723 38:0.28868 39:0.57478 40:-0.34546 41:-0.61522 42:-0.11323 43:0.096484 44:-0.4925 45:-0.64248 46:-0.026363 47:0.32317 48:-0.31298 49:-0.42312 50:-0.96755 51:0.47128 52:0.17033 53:0.1794 54:0.67091 55:-0.1621 56:-1.9417 57:0.23473 58:0.13247 59:1.2179 60:0.605 61:-0.25138 62:1.0135 63:-0.12321 64:-0.23109 65:1.1575 66:0.32664 67:0.67967 68:0.62483 69:-0.43403 70:0.24201 71:0.22149 72:-0.11082 73:-0.23777 74:-0.21992 75:0.047086 76:0.25577 77:0.33871 78:-0.39868 79:-0.64011 80:0.19467 81:0.38811 82:-0.34189 83:-0.65507 84:-0.39797 85:-1.668 86:-0.62716 87:-0.27891 88:-0.00014456 89:-0.72774 90:-0.32837 91:0.17467 92:-0.31239 93:0.079336 94:-0.33328 95:-0.72548 96:-0.094346 97:-0.41198 98:-0.26415 99:0.066953 100:0.52008 101:-0.075346 102:0.50042 103:0.45245 104:0.048517 105:-0.99522 106:-0.8406 107:-0.10024 108:-0.12412 109:-0.126 110:0.2924 111:-0.49251 112:0.48568 113:-0.06843 114:-0.2977 115:-0.69803 116:0.4889 117:-0.69276 118:0.38626 119:0.42431 120:0.38636 121:0.086708 122:0.25188 123:0.31386 124:-0.096433 125:-0.10208 126:0.92521 127:-0.40983 128:-0.3771 129:0.068063 130:-1.2892 131:0.46452 132:0.90315 133:-0.31432 134:-0.050751 135:-0.42146 136:0.31079 137:-0.34049 138:-0.11195 139:0.26621 140:0.55499 141:0.63064 142:0.00165 143:0.10294 144:-0.35382 145:-0.71996 146:-0.21499 147:-0.35604 148:0.74262 149:0.61708 150:-0.059028 151:0.022778 152:0.35284 153:-0.090742 154:0.043318 155:-0.98507 156:0.45995 157:-0.083842 158:-0.15069 159:-0.33498 160:-0.23196 161:-0.37532 162:-0.21648 163:-0.38948 164:-1.2032 165:0.13256 166:0.96576 167:0.47387 168:-0.27188 169:-0.88489 170:0.12617 171:0.59053 172:-0.11304 173:-0.6367 174:-0.2842 175:0.3245 176:-0.56001 177:0.38458 178:0.32444 179:0.28271 180:-0.40025 181:0.1637 182:-1.0688 183:-0.10139 184:-0.91038 185:-0.65492 186:0.094751 187:-0.15581 188:-0.17004 189:0.097478 190:0.83581 191:-0.36558 192:0.045711 193:-0.022095 194:-0.35157 195:0.90728 196:-0.16028 197:0.65119 198:-0.19781 199:-0.68103 200:0.55058 201:35 202:11 
0 0 0 0.284212732202732 1:0.03024 2:0.44606 3:0.43166 4:-0.37528 5:0.29068 6:0.23032 7:0.18125 8:0.40201 9:0.13518 10:-0.19562 11:0.30639 12:-0.13239 13:0.67897 14:0.42234 15:0.32637 16:-0.15281 17:0.37698 18:-0.23303 19:-0.33817 20:0.30588 21:0.44918 22:-0.83624 23:0.59146 24:0.24958 25:0.39986 26:-0.50172 27:-0.23544 28:-0.14696 29:-0.35144 30:-0.56852 31:0.08954 32:0.82612 33:-0.26586 34:0.3903 35:-0.036849 36:0.48257 37:0.71664 38:0.11004 39:-0.59354 40:-0.33216 41:-0.25736 42:-0.34531 43:-0.026326 44:-0.23747 45:0.00019656 46:-0.2748 47:0.38512 48:-0.39581 49:0.11404 50:-0.25174 51:-0.3247 52:0.089608 53:0.24929 54:1.5127 55:-0.19762 56:-2.8509 57:-0.53833 58:-0.47111 59:1.7859 60:0.78126 61:-0.12963 62:0.56077 63:0.32151 64:0.35571 65:0.84547 66:0.14931 67:0.11487 68:0.30625 69:0.54774 70:-0.50426 71:0.33824 72:-0.62043 73:-0.012869 74:0.066666 75:0.062731 76:-0.44534 77:0.15541 78:0.21801 79:-1.732 80:0.42054 81:0.36319 82:-0.072258 83:-0.74811 84:0.19888 85:-1.4461 86:-0.27576 87:0.26646 88:-0.57838 89:0.56151 90:-0.028701 91:-0.2466 92:-0.425 93:-0.57154 94:0.31939 95:-0.22075 96:0.46528 97:-0.16606 98:-0.79923 99:0.80849 100:0.37378 101:0.25654 102:1.1541 103:0.1682 104:-0.34945 105:0.82621 106:-2.2466 107:-0.32134 108:0.23278 109:-0.029858 110:0.37266 111:0.37066 112:-0.032376 113:0.46271 114:-0.19892 115:-0.86473 116:-0.42639 117:-0.45388 118:-0.76075 119:0.51015 120:-0.16545 121:0.29341 122:0.011745 123:0.46639 124:-0.023005 125:-0.40425 126:0.64526 127:-0.76665 128:0.32528 129:-0.037421 130:0.49525 131:-0.19674 132:-0.41707 133:-0.74293 134:-0.44123 135:-0.76235 136:0.45876 137:0.24847 138:0.4192 139:0.29734 140:-0.27496 141:-0.19566 142:-1.576 143:-0.42957 144:-0.34703 145:1.0297 146:-0.081188 147:-0.82081 148:-0.30155 149:-0.36565 150:-1.1521 151:-0.52495 152:1.015 153:-0.058089 154:1.7543 155:-0.84089 156:-1.8879 157:-0.4951 158:-0.90506 159:1.883 160:0.32414 161:0.26227 162:-0.10721 163:-0.029368 164:-0.45342 165:0.84999 166:0.066904 167:0.91802 168:-0.81298 169:-0.10123 170:-0.65498 171:0.14991 172:0.24354 173:0.29982 174:0.46075 175:0.29259 176:-0.5052 177:0.35624 178:-0.064773 179:-0.91634 180:0.79955 181:1.5766 182:-0.0069231 183:-0.88502 184:0.61966 185:-0.036743 186:-0.85141 187:0.41541 188:0.028193 189:0.5814 190:-1.3635 191:-0.078778 192:-0.34955 193:-1.236 194:-1.0447 195:-1.5546 196:0.36048 197:0.045827 198:-0.26507 199:0.21363 200:-0.14351 201:32 202:11 
0 0.04694153111696742 0 0 1:-0.23769 2:0.59392 3:0.58697 4:-0.041788 5:-0.86803 6:-0.0051122 7:-0.4493 8:-0.027985 9:0.065674 10:-0.37901 11:0.31175 12:0.20528 13:0.431 14:-0.30913 15:-0.084523 16:0.056902 17:0.34704 18:0.32332 19:-0.60413 20:0.23123 21:-0.095476 22:-0.50009 23:0.024528 24:-0.5819 25:0.0075945 26:-0.13871 27:-0.26417 28:-0.7827 29:-0.24024 30:0.081827 31:-0.1867 32:0.95404 33:-0.057412 34:0.0089747 35:-0.20492 36:0.060902 37:-0.018265 38:0.3349 39:0.2373 40:-0.17605 41:-0.54013 42:-0.32745 43:-0.088963 44:-0.38417 45:-1.0903 46:0.17028 47:-0.019269 48:-0.35687 49:-0.0084772 50:-0.81525 51:0.23428 52:0.11118 53:0.42356 54:1.111 55:-0.35535 56:-2.3889 57:0.6203 58:-0.16352 59:1.445 60:0.58333 61:-0.22946 62:1.4375 63:-0.063997 64:-0.31511 65:1.0875 66:0.39221 67:0.73147 68:0.57236 69:-0.050781 70:-0.027736 71:0.41085 72:-0.25076 73:-0.26331 74:-0.38682 75:0.50667 76:-0.178 77:0.018334 78:-0.64042 79:-0.83078 80:0.26167 81:0.7191 82:0.1505 83:-0.67532 84:-0.1487 85:-2.1266 86:-0.58562 87:-0.12433 88:-0.32622 89:-1.0088 90:-0.65506 91:0.12711 92:0.227 93:-0.26423 94:-0.44033 95:-0.45518 96:-0.28702 97:-0.48125 98:-0.58302 99:0.20035 100:0.50308 101:-0.3384 102:0.6032 103:0.61412 104:-0.05686 105:-0.37309 106:-0.061981 107:-0.40583 108:-0.11304 109:0.018956 110:-0.086392 111:-0.19767 112:0.30401 113:-0.17332 114:-0.58002 115:0.25126 116:-0.83477 117:-0.34257 118:0.18994 119:0.093403 120:0.68556 121:0.41599 122:0.44229 123:-0.080242 124:-0.29032 125:0.026182 126:-0.066266 127:-0.29265 128:-0.61917 129:-0.003058 130:-0.30887 131:0.046545 132:0.29265 133:-0.11817 134:-0.099073 135:-0.12231 136:0.44359 137:0.037724 138:0.34108 139:-0.31529 140:0.22834 141:-0.23893 142:-0.53311 143:0.09226 144:-0.26013 145:-0.345 146:-0.079983 147:0.80432 148:-0.34395 149:0.42991 150:-1.2454 151:0.22909 152:-0.031585 153:0.14377 154:1.1435 155:-0.29506 156:-2.7798 157:-0.083334 158:-0.50714 159:1.5535 160:0.25629 161:0.43922 162:1.3835 163:-0.65789 164:0.23549 165:0.66741 166:-0.084843 167:0.83077 168:0.18837 169:0.49648 170:0.076237 171:0.082209 172:-0.38204 173:0.12748 174:0.10687 175:0.19172 176:-0.092941 177:-0.31443 178:-0.35409 179:-1.0228 180:0.452 181:0.53832 182:0.089991 183:-0.67326 184:0.18871 185:-1.5292 186:0.083864 187:0.016029 188:-0.11863 189:-0.40369 190:-0.49117 191:0.36135 192:-0.25832 193:-0.24702 194:-0.18608 195:-0.48393 196:-0.48878 197:-0.30166 198:-0.37964 199:0.59431 200:0.61286 201:35 202:19 
0.07127202182040447 0.294961471565606 0 0 1:0.27966 2:0.22237 3:0.19693 4:-0.48409 5:0.32958 6:0.22324 7:-0.15067 8:-0.12234 9:-0.54531 10:0.62196 11:-0.42843 12:0.030106 13:0.71904 14:0.10657 15:-0.19929 16:-0.041562 17:0.54371 18:0.051131 19:-0.025082 20:0.43575 21:0.2277 22:0.14475 23:0.36606 24:0.14058 25:0.35997 26:-0.40628 27:-0.40168 28:-0.36747 29:0.086598 30:-0.28881 31:0.74286 32:0.78805 33:-0.29215 34:0.13447 35:0.25617 36:-0.058132 37:0.28383 38:0.51732 39:0.1144 40:0.13754 41:-0.13134 42:-0.051647 43:0.97419 44:-0.18319 45:0.30157 46:-0.15712 47:-0.16705 48:0.0084015 49:0.52738 50:-0.09942 51:0.053472 52:-0.40245 53:0.34004 54:1.1205 55:0.32565 56:-2.1196 57:-0.22923 58:-0.0022158 59:1.0364 60:0.8805 61:0.58049 62:0.50634 63:0.54655 64:-0.31368 65:1.035 66:-0.16512 67:0.47529 68:0.25793 69:0.098654 70:-0.068213 71:0.019037 72:0.13291 73:-0.43982 74:-0.39714 75:0.16434 76:-0.53389 77:-0.34587 78:-0.13639 79:-0.96677 80:0.010992 81:0.59558 82:0.56413 83:-0.21132 84:-0.11839 85:-1.4035 86:-0.72136 87:-0.24933 88:-0.44892 89:-0.056056 90:-0.49825 91:0.14124 92:-0.083055 93:0.44025 94:0.28124 95:-0.87152 96:0.26363 97:-0.56029 98:-1.0566 99:0.66357 100:-0.050485 101:-0.020102 102:0.037514 103:0.35363 104:0.16576 105:0.094826 106:0.087456 107:0.79498 108:0.20762 109:-0.58127 110:-0.077115 111:0.19662 112:-0.40312 113:-0.078157 114:0.29174 115:0.16982 116:0.0039022 117:0.73646 118:0.39023 119:-0.097257 120:-0.17307 121:0.63939 122:-0.28145 123:0.11622 124:0.67527 125:0.63166 126:-0.78246 127:-0.052301 128:-0.27931 129:0.46076 130:0.12461 131:-0.72262 132:0.73386 133:0.12163 134:0.23468 135:0.037115 136:0.12662 137:-0.56842 138:0.62871 139:-0.22405 140:0.11521 141:-0.57071 142:0.18036 143:0.42331 144:0.041353 145:0.36782 146:0.26287 147:0.47149 148:-0.83604 149:0.33438 150:-0.72676 151:-0.50733 152:0.033712 153:0.3284 154:0.86322 155:-0.45689 156:-3.1522 157:-0.53969 158:0.033392 159:1.5954 160:0.7581 161:-0.52425 162:0.61545 163:-0.26716 164:0.4432 165:0.95084 166:-0.29942 167:-0.0040878 168:0.39697 169:0.022105 170:-0.12852 171:-0.11692 172:0.1899 173:-0.19811 174:-0.4304 175:-0.075405 176:0.43592 177:-0.62717 178:-0.25134 179:-1.2143 180:-0.40294 181:0.51429 182:0.1677 183:-0.31839 184:0.38681 185:-1.4578 186:-0.43424 187:0.39687 188:-0.50085 189:0.48592 190:-0.40226 191:0.0056424 192:0.037021 193:-0.19116 194:0.31763 195:-0.74249 196:-0.097248 197:-0.19801 198:0.062608 199:0.28386 200:-0.31632 201:34 202:6 
0 0.07807142857417365 0 0 1:-0.23769 2:0.59392 3:0.58697 4:-0.041788 5:-0.86803 6:-0.0051122 7:-0.4493 8:-0.027985 9:0.065674 10:-0.37901 11:0.31175 12:0.20528 13:0.431 14:-0.30913 15:-0.084523 16:0.056902 17:0.34704 18:0.32332 19:-0.60413 20:0.23123 21:-0.095476 22:-0.50009 23:0.024528 24:-0.5819 25:0.0075945 26:-0.13871 27:-0.26417 28:-0.7827 29:-0.24024 30:0.081827 31:-0.1867 32:0.95404 33:-0.057412 34:0.0089747 35:-0.20492 36:0.060902 37:-0.018265 38:0.3349 39:0.2373 40:-0.17605 41:-0.54013 42:-0.32745 43:-0.088963 44:-0.38417 45:-1.0903 46:0.17028 47:-0.019269 48:-0.35687 49:-0.0084772 50:-0.81525 51:0.23428 52:0.11118 53:0.42356 54:1.111 55:-0.35535 56:-2.3889 57:0.6203 58:-0.16352 59:1.445 60:0.58333 61:-0.22946 62:1.4375 63:-0.063997 64:-0.31511 65:1.0875 66:0.39221 67:0.73147 68:0.57236 69:-0.050781 70:-0.027736 71:0.41085 72:-0.25076 73:-0.26331 74:-0.38682 75:0.50667 76:-0.178 77:0.018334 78:-0.64042 79:-0.83078 80:0.26167 81:0.7191 82:0.1505 83:-0.67532 84:-0.1487 85:-2.1266 86:-0.58562 87:-0.12433 88:-0.32622 89:-1.0088 90:-0.65506 91:0.12711 92:0.227 93:-0.26423 94:-0.44033 95:-0.45518 96:-0.28702 97:-0.48125 98:-0.58302 99:0.20035 100:0.50308 101:-0.24149 102:0.43733 103:-0.32623 104:-0.18897 105:-0.29305 106:-0.28223 107:-0.37429 108:0.47172 109:-0.61045 110:-0.17059 111:-0.05528 112:0.74618 113:0.61522 114:0.29321 115:0.23069 116:-0.40869 117:0.24888 118:-0.48797 119:0.00048047 120:-0.54519 121:0.52164 122:0.73132 123:-0.0010567 124:0.10601 125:0.84546 126:0.49301 127:-0.92694 128:-0.56454 129:-0.073725 130:0.087184 131:-0.17091 132:0.29569 133:0.41866 134:-0.35302 135:0.33314 136:0.23985 137:0.51223 138:0.31759 139:0.36975 140:0.52439 141:-0.15201 142:-0.5523 143:0.41703 144:-0.13236 145:0.095632 146:-0.4792 147:0.82726 148:-0.41113 149:0.24488 150:-0.11884 151:0.25559 152:-0.55004 153:0.48753 154:1.2109 155:0.41641 156:-2.8652 157:0.26831 158:-0.094585 159:1.8959 160:0.43377 161:-0.17049 162:0.82421 163:0.10373 164:-0.18124 165:0.63302 166:-0.02878 167:0.66535 168:0.12374 169:-0.08893 170:-0.18875 171:0.26731 172:0.13841 173:-0.1126 174:-0.3464 175:-0.044674 176:-0.45838 177:-0.66339 178:-0.018257 179:-0.89461 180:-0.27158 181:0.70234 182:-0.077111 183:-0.35251 184:0.1509 185:-1.7293 186:0.20593 187:-0.23115 188:0.079508 189:-0.092586 190:-0.11143 191:-0.18736 192:0.32542 193:-0.38972 194:-0.37078 195:-0.65679 196:-0.082912 197:-0.51918 198:-0.34876 199:0.23791 200:0.21206 201:35 202:6 
0.2692554289228601 0.483354432467429 0 0 1:0.051044 2:0.59824 3:0.31195 4:-0.066913 5:-0.29111 6:0.46091 7:-0.27781 8:0.44026 9:0.044429 10:-0.22897 11:0.20414 12:-0.1458 13:0.77876 14:0.28536 15:0.32293 16:-0.42382 17:0.46866 18:-0.068769 19:-0.57332 20:0.02484 21:0.18865 22:-0.25324 23:0.63914 24:-0.22605 25:-0.094128 26:-0.33878 27:-0.027334 28:-0.97173 29:0.22157 30:-0.45171 31:-0.42427 32:0.11795 33:0.21835 34:0.59762 35:0.083504 36:0.03862 37:0.21675 38:-0.011594 39:0.15081 40:-0.33137 41:-0.34324 42:-0.36142 43:0.17621 44:-0.47619 45:0.11287 46:0.063469 47:0.23026 48:-0.10055 49:0.4327 50:0.14464 51:-0.3986 52:-0.26808 53:0.3182 54:1.187 55:-0.53799 56:-2.7762 57:-0.36056 58:-0.52403 59:1.4961 60:0.5852 61:-0.45835 62:0.90748 63:0.19071 64:-0.083699 65:1.1361 66:0.18972 67:0.66498 68:0.19299 69:0.52448 70:0.42907 71:-0.12227 72:-0.63509 73:0.34567 74:-0.27887 75:0.20995 76:-0.10872 77:0.57247 78:-0.14223 79:-0.76988 80:0.20549 81:0.697 82:0.031403 83:-0.82066 84:0.00055807 85:-0.95539 86:-0.24125 87:-0.14125 88:-0.39647 89:-0.15662 90:-0.1668 91:0.16383 92:-0.2677 93:-0.077713 94:0.46474 95:-0.82278 96:0.18345 97:-0.33744 98:0.058495 99:0.72002 100:0.34357 101:-0.21863 102:-0.42664 103:0.5196 104:0.0043103 105:0.58045 106:-0.10873 107:-0.37726 108:0.4566 109:-0.60627 110:-0.075773 111:0.11306 112:0.17703 113:0.1605 114:0.074514 115:0.63649 116:-0.078852 117:0.75268 118:-0.24962 119:-0.51628 120:-0.33348 121:0.66754 122:-0.34183 123:0.61316 124:0.31668 125:0.64846 126:-0.079312 127:-0.065219 128:-0.17718 129:-0.32439 130:0.51868 131:-0.23424 132:0.34381 133:0.046851 134:0.74025 135:-0.47005 136:0.53685 137:-0.35549 138:0.40737 139:-0.093421 140:-0.13439 141:-0.41969 142:-0.30041 143:0.28646 144:0.37419 145:-0.46054 146:-0.307 147:-0.3858 148:-0.69317 149:-0.00092461 150:-0.61984 151:0.11978 152:0.1495 153:0.17833 154:1.5313 155:-0.92445 156:-3.0428 157:0.030761 158:-0.64359 159:2.3824 160:0.56219 161:-0.56021 162:1.0264 163:-0.45143 164:0.14117 165:0.65944 166:0.37572 167:0.098334 168:0.38304 169:-0.076882 170:-0.21781 171:-0.29892 172:-0.49458 173:0.095239 174:-0.63059 175:-0.061311 176:0.17767 177:-0.14051 178:0.47182 179:-0.95891 180:0.045334 181:0.808 182:-0.026867 183:-0.27483 184:0.35541 185:-0.82896 186:-0.78838 187:-0.079732 188:0.22941 189:-0.45013 190:-0.3004 191:-0.52716 192:0.11358 193:-0.49906 194:0.827 195:-0.56991 196:0.25143 197:-0.40266 198:-0.29146 199:1.3816 200:0.18084 201:35 202:5 
0 0 0 0.3964222034375932 1:0.11326 2:-0.23055 3:0.4684 4:-0.26068 5:0.12871 6:0.38373 7:-0.032314 8:-0.57986 9:0.18424 10:0.046796 11:-0.55893 12:0.27794 13:0.74838 14:0.33575 15:0.026834 16:-0.44505 17:1.4755 18:-0.14081 19:-0.31658 20:0.57686 21:-0.1844 22:-0.1037 23:-0.22519 24:0.34614 25:-0.2193 26:-0.23868 27:-0.12845 28:-0.77772 29:0.16957 30:0.029432 31:0.47705 32:0.85881 33:-0.053617 34:0.1077 35:0.09644 36:0.27325 37:0.044933 38:0.001331 39:0.050395 40:-0.48147 41:0.17561 42:0.19419 43:0.51495 44:-0.56149 45:0.11211 46:0.25591 47:0.029011 48:-0.0034461 49:-0.18478 50:-0.2065 51:0.10358 52:0.75532 53:0.94688 54:0.84278 55:-0.70051 56:-2.4433 57:-0.91913 58:-0.10451 59:0.90954 60:0.25491 61:0.21129 62:1.2046 63:-0.091615 64:0.30364 65:1.3768 66:-0.58152 67:0.38085 68:0.15504 69:0.20049 70:0.00073361 71:-0.623 72:0.20244 73:-0.30387 74:-0.81412 75:0.38805 76:0.21271 77:-0.041525 78:-0.045596 79:-1.1508 80:-0.25826 81:-0.089721 82:-1.1256 83:-0.25124 84:-0.2801 85:-1.0334 86:-0.16813 87:-0.40975 88:-1.0685 89:0.74311 90:0.083244 91:-0.33616 92:-0.08815 93:0.15401 94:0.47736 95:-0.18272 96:-0.25543 97:-0.89365 98:-0.46822 99:0.19834 100:-0.048772 101:-0.038194 102:-0.24487 103:0.72812 104:-0.39961 105:0.083172 106:0.043953 107:-0.39141 108:0.3344 109:-0.57545 110:0.087459 111:0.28787 112:-0.06731 113:0.30906 114:-0.26384 115:-0.13231 116:-0.20757 117:0.33395 118:-0.33848 119:-0.31743 120:-0.48336 121:0.1464 122:-0.37304 123:0.34577 124:0.052041 125:0.44946 126:-0.46971 127:0.02628 128:-0.54155 129:-0.15518 130:-0.14107 131:-0.039722 132:0.28277 133:0.14393 134:0.23464 135:-0.31021 136:0.086173 137:0.20397 138:0.52624 139:0.17164 140:-0.082378 141:-0.71787 142:-0.41531 143:0.20335 144:-0.12763 145:0.41367 146:0.55187 147:0.57908 148:-0.33477 149:-0.36559 150:-0.54857 151:-0.062892 152:0.26584 153:0.30205 154:0.99775 155:-0.80481 156:-3.0243 157:0.01254 158:-0.36942 159:2.2167 160:0.72201 161:-0.24978 162:0.92136 163:0.034514 164:0.46745 165:1.1079 166:-0.19358 167:-0.074575 168:0.23353 169:-0.052062 170:-0.22044 171:0.057162 172:-0.15806 173:-0.30798 174:-0.41625 175:0.37972 176:0.15006 177:-0.53212 178:-0.2055 179:-1.2526 180:0.071624 181:0.70565 182:0.49744 183:-0.42063 184:0.26148 185:-1.538 186:-0.30223 187:-0.073438 188:-0.28312 189:0.37104 190:-0.25217 191:0.016215 192:-0.017099 193:-0.38984 194:0.87424 195:-0.72569 196:-0.51058 197:-0.52028 198:-0.1459 199:0.8278 200:0.27062 201:11 202:2 
0.06250731232625077 0.1520944224556287 0 0 1:0.1845 2:0.51461 3:0.65342 4:-0.42173 5:-0.8143 6:0.050029 7:-0.4187 8:-0.041949 9:0.47558 10:-0.54651 11:0.43974 12:0.26532 13:0.21381 14:-0.071729 15:-0.17475 16:-0.18682 17:-0.12933 18:0.47129 19:-0.62407 20:0.54606 21:-0.042295 22:-0.11002 23:-0.31637 24:-0.62179 25:-0.024532 26:0.25281 27:-0.018242 28:-0.85596 29:0.096847 30:0.039929 31:-0.027546 32:0.68141 33:0.18839 34:0.012421 35:-0.18829 36:0.33089 37:-0.020723 38:0.28868 39:0.57478 40:-0.34546 41:-0.61522 42:-0.11323 43:0.096484 44:-0.4925 45:-0.64248 46:-0.026363 47:0.32317 48:-0.31298 49:-0.42312 50:-0.96755 51:0.47128 52:0.17033 53:0.1794 54:0.67091 55:-0.1621 56:-1.9417 57:0.23473 58:0.13247 59:1.2179 60:0.605 61:-0.25138 62:1.0135 63:-0.12321 64:-0.23109 65:1.1575 66:0.32664 67:0.67967 68:0.62483 69:-0.43403 70:0.24201 71:0.22149 72:-0.11082 73:-0.23777 74:-0.21992 75:0.047086 76:0.25577 77:0.33871 78:-0.39868 79:-0.64011 80:0.19467 81:0.38811 82:-0.34189 83:-0.65507 84:-0.39797 85:-1.668 86:-0.62716 87:-0.27891 88:-0.00014456 89:-0.72774 90:-0.32837 91:0.17467 92:-0.31239 93:0.079336 94:-0.33328 95:-0.72548 96:-0.094346 97:-0.41198 98:-0.26415 99:0.066953 100:0.52008 101:-0.17047 102:0.4037 103:0.21069 104:-0.89495 105:-1.0974 106:0.26637 107:-0.66438 108:0.43423 109:0.43604 110:-0.096505 111:0.17299 112:-0.043644 113:0.25197 114:0.37532 115:-0.3742 116:-0.31528 117:0.15621 118:1.0254 119:-0.69791 120:0.85064 121:0.29749 122:0.2582 123:0.037544 124:-0.29904 125:-0.48232 126:0.24501 127:-0.42231 128:-1.213 129:0.65729 130:-0.66008 131:-0.20341 132:0.49007 133:0.21975 134:-0.015368 135:0.2685 136:0.75017 137:0.066525 138:0.22781 139:0.36977 140:-0.43185 141:-0.17637 142:0.19282 143:-0.5611 144:-0.83103 145:-0.93903 146:-0.037231 147:0.20521 148:-0.67886 149:-0.75606 150:-1.4499 151:0.024081 152:0.13546 153:-0.33894 154:0.9505 155:0.023876 156:-2.3589 157:0.25861 158:0.027507 159:1.7216 160:0.45003 161:-0.38897 162:1.1423 163:-0.7378 164:-0.57465 165:1.2876 166:0.6925 167:0.93593 168:0.57175 169:-0.23874 170:-0.48673 171:0.090969 172:-0.51457 173:0.21292 174:-0.85689 175:-0.055736 176:-0.20015 177:-0.3957 178:0.061003 179:-0.45949 180:-0.057818 181:0.7602 182:-0.55281 183:-0.96297 184:-0.086508 185:-2.036 186:-0.2284 187:0.061782 188:0.1475 189:-0.19664 190:-0.50653 191:-0.16682 192:-0.29811 193:0.10284 194:-0.4235 195:-0.71824 196:0.045687 197:-0.21338 198:-0.67179 199:0.31645 200:0.50594 201:35 202:30 
0 0 0 1 1:0.11326 2:-0.23055 3:0.4684 4:-0.26068 5:0.12871 6:0.38373 7:-0.032314 8:-0.57986 9:0.18424 10:0.046796 11:-0.55893 12:0.27794 13:0.74838 14:0.33575 15:0.026834 16:-0.44505 17:1.4755 18:-0.14081 19:-0.31658 20:0.57686 21:-0.1844 22:-0.1037 23:-0.22519 24:0.34614 25:-0.2193 26:-0.23868 27:-0.12845 28:-0.77772 29:0.16957 30:0.029432 31:0.47705 32:0.85881 33:-0.053617 34:0.1077 35:0.09644 36:0.27325 37:0.044933 38:0.001331 39:0.050395 40:-0.48147 41:0.17561 42:0.19419 43:0.51495 44:-0.56149 45:0.11211 46:0.25591 47:0.029011 48:-0.0034461 49:-0.18478 50:-0.2065 51:0.10358 52:0.75532 53:0.94688 54:0.84278 55:-0.70051 56:-2.4433 57:-0.91913 58:-0.10451 59:0.90954 60:0.25491 61:0.21129 62:1.2046 63:-0.091615 64:0.30364 65:1.3768 66:-0.58152 67:0.38085 68:0.15504 69:0.20049 70:0.00073361 71:-0.623 72:0.20244 73:-0.30387 74:-0.81412 75:0.38805 76:0.21271 77:-0.041525 78:-0.045596 79:-1.1508 80:-0.25826 81:-0.089721 82:-1.1256 83:-0.25124 84:-0.2801 85:-1.0334 86:-0.16813 87:-0.40975 88:-1.0685 89:0.74311 90:0.083244 91:-0.33616 92:-0.08815 93:0.15401 94:0.47736 95:-0.18272 96:-0.25543 97:-0.89365 98:-0.46822 99:0.19834 100:-0.048772 101:-0.038194 102:-0.24487 103:0.72812 104:-0.39961 105:0.083172 106:0.043953 107:-0.39141 108:0.3344 109:-0.57545 110:0.087459 111:0.28787 112:-0.06731 113:0.30906 114:-0.26384 115:-0.13231 116:-0.20757 117:0.33395 118:-0.33848 119:-0.31743 120:-0.48336 121:0.1464 122:-0.37304 123:0.34577 124:0.052041 125:0.44946 126:-0.46971 127:0.02628 128:-0.54155 129:-0.15518 130:-0.14107 131:-0.039722 132:0.28277 133:0.14393 134:0.23464 135:-0.31021 136:0.086173 137:0.20397 138:0.52624 139:0.17164 140:-0.082378 141:-0.71787 142:-0.41531 143:0.20335 144:-0.12763 145:0.41367 146:0.55187 147:0.57908 148:-0.33477 149:-0.36559 150:-0.54857 151:-0.062892 152:0.26584 153:0.30205 154:0.99775 155:-0.80481 156:-3.0243 157:0.01254 158:-0.36942 159:2.2167 160:0.72201 161:-0.24978 162:0.92136 163:0.034514 164:0.46745 165:1.1079 166:-0.19358 167:-0.074575 168:0.23353 169:-0.052062 170:-0.22044 171:0.057162 172:-0.15806 173:-0.30798 174:-0.41625 175:0.37972 176:0.15006 177:-0.53212 178:-0.2055 179:-1.2526 180:0.071624 181:0.70565 182:0.49744 183:-0.42063 184:0.26148 185:-1.538 186:-0.30223 187:-0.073438 188:-0.28312 189:0.37104 190:-0.25217 191:0.016215 192:-0.017099 193:-0.38984 194:0.87424 195:-0.72569 196:-0.51058 197:-0.52028 198:-0.1459 199:0.8278 200:0.27062 201:11 202:2 
0.07460993657217764 0 0 0 1:-0.23769 2:0.59392 3:0.58697 4:-0.041788 5:-0.86803 6:-0.0051122 7:-0.4493 8:-0.027985 9:0.065674 10:-0.37901 11:0.31175 12:0.20528 13:0.431 14:-0.30913 15:-0.084523 16:0.056902 17:0.34704 18:0.32332 19:-0.60413 20:0.23123 21:-0.095476 22:-0.50009 23:0.024528 24:-0.5819 25:0.0075945 26:-0.13871 27:-0.26417 28:-0.7827 29:-0.24024 30:0.081827 31:-0.1867 32:0.95404 33:-0.057412 34:0.0089747 35:-0.20492 36:0.060902 37:-0.018265 38:0.3349 39:0.2373 40:-0.17605 41:-0.54013 42:-0.32745 43:-0.088963 44:-0.38417 45:-1.0903 46:0.17028 47:-0.019269 48:-0.35687 49:-0.0084772 50:-0.81525 51:0.23428 52:0.11118 53:0.42356 54:1.111 55:-0.35535 56:-2.3889 57:0.6203 58:-0.16352 59:1.445 60:0.58333 61:-0.22946 62:1.4375 63:-0.063997 64:-0.31511 65:1.0875 66:0.39221 67:0.73147 68:0.57236 69:-0.050781 70:-0.027736 71:0.41085 72:-0.25076 73:-0.26331 74:-0.38682 75:0.50667 76:-0.178 77:0.018334 78:-0.64042 79:-0.83078 80:0.26167 81:0.7191 82:0.1505 83:-0.67532 84:-0.1487 85:-2.1266 86:-0.58562 87:-0.12433 88:-0.32622 89:-1.0088 90:-0.65506 91:0.12711 92:0.227 93:-0.26423 94:-0.44033 95:-0.45518 96:-0.28702 97:-0.48125 98:-0.58302 99:0.20035 100:0.50308 101:-0.29428 102:0.25787 103:0.011717 104:-0.17985 105:-0.36054 106:-0.24693 107:-0.46744 108:-0.074908 109:-0.59788 110:0.023629 111:0.24543 112:-0.24263 113:-0.15302 114:-0.32632 115:0.27063 116:-0.41692 117:-0.53232 118:0.067077 119:-0.11251 120:0.25403 121:0.87933 122:0.60451 123:0.26375 124:-0.66206 125:0.36511 126:1.1593 127:-0.80014 128:-0.54176 129:-0.46005 130:0.60518 131:-0.60287 132:0.57486 133:-0.14712 134:-0.69648 135:0.65833 136:-0.018851 137:-0.083176 138:-0.23039 139:-0.093874 140:0.057157 141:-0.21744 142:0.13993 143:0.13621 144:-0.27003 145:0.21129 146:0.014057 147:0.33412 148:-0.051747 149:0.95018 150:-0.95344 151:0.16066 152:0.28266 153:0.0040011 154:0.63946 155:0.40329 156:-2.0304 157:-0.71399 158:0.99484 159:1.8929 160:0.055106 161:-0.43624 162:0.21601 163:0.16858 164:0.11695 165:0.54723 166:0.52183 167:-0.016353 168:-0.001128 169:0.62834 170:-0.2157 171:0.032744 172:-0.13322 173:0.12737 174:-0.33746 175:0.59192 176:-0.10416 177:-0.48434 178:-0.25466 179:0.46166 180:-0.5278 181:0.70844 182:-0.17581 183:-0.76447 184:0.42097 185:-1.1805 186:-0.16835 187:0.32361 188:-0.58442 189:-0.69939 190:-0.21042 191:0.21826 192:0.71773 193:-0.26079 194:-0.26494 195:-0.45767 196:-0.51785 197:0.21204 198:-0.14329 199:0.44774 200:0.38847 201:35 202:6 
0 0.1102507268670684 0.04995647789937385 0 1:-0.23769 2:0.59392 3:0.58697 4:-0.041788 5:-0.86803 6:-0.0051122 7:-0.4493 8:-0.027985 9:0.065674 10:-0.37901 11:0.31175 12:0.20528 13:0.431 14:-0.30913 15:-0.084523 16:0.056902 17:0.34704 18:0.32332 19:-0.60413 20:0.23123 21:-0.095476 22:-0.50009 23:0.024528 24:-0.5819 25:0.0075945 26:-0.13871 27:-0.26417 28:-0.7827 29:-0.24024 30:0.081827 31:-0.1867 32:0.95404 33:-0.057412 34:0.0089747 35:-0.20492 36:0.060902 37:-0.018265 38:0.3349 39:0.2373 40:-0.17605 41:-0.54013 42:-0.32745 43:-0.088963 44:-0.38417 45:-1.0903 46:0.17028 47:-0.019269 48:-0.35687 49:-0.0084772 50:-0.81525 51:0.23428 52:0.11118 53:0.42356 54:1.111 55:-0.35535 56:-2.3889 57:0.6203 58:-0.16352 59:1.445 60:0.58333 61:-0.22946 62:1.4375 63:-0.063997 64:-0.31511 65:1.0875 66:0.39221 67:0.73147 68:0.57236 69:-0.050781 70:-0.027736 71:0.41085 72:-0.25076 73:-0.26331 74:-0.38682 75:0.50667 76:-0.178 77:0.018334 78:-0.64042 79:-0.83078 80:0.26167 81:0.7191 82:0.1505 83:-0.67532 84:-0.1487 85:-2.1266 86:-0.58562 87:-0.12433 88:-0.32622 89:-1.0088 90:-0.65506 91:0.12711 92:0.227 93:-0.26423 94:-0.44033 95:-0.45518 96:-0.28702 97:-0.48125 98:-0.58302 99:0.20035 100:0.50308 101:-0.29428 102:0.25787 103:0.011717 104:-0.17985 105:-0.36054 106:-0.24693 107:-0.46744 108:-0.074908 109:-0.59788 110:0.023629 111:0.24543 112:-0.24263 113:-0.15302 114:-0.32632 115:0.27063 116:-0.41692 117:-0.53232 118:0.067077 119:-0.11251 120:0.25403 121:0.87933 122:0.60451 123:0.26375 124:-0.66206 125:0.36511 126:1.1593 127:-0.80014 128:-0.54176 129:-0.46005 130:0.60518 131:-0.60287 132:0.57486 133:-0.14712 134:-0.69648 135:0.65833 136:-0.018851 137:-0.083176 138:-0.23039 139:-0.093874 140:0.057157 141:-0.21744 142:0.13993 143:0.13621 144:-0.27003 145:0.21129 146:0.014057 147:0.33412 148:-0.051747 149:0.95018 150:-0.95344 151:0.16066 152:0.28266 153:0.0040011 154:0.63946 155:0.40329 156:-2.0304 157:-0.71399 158:0.99484 159:1.8929 160:0.055106 161:-0.43624 162:0.21601 163:0.16858 164:0.11695 165:0.54723 166:0.52183 167:-0.016353 168:-0.001128 169:0.62834 170:-0.2157 171:0.032744 172:-0.13322 173:0.12737 174:-0.33746 175:0.59192 176:-0.10416 177:-0.48434 178:-0.25466 179:0.46166 180:-0.5278 181:0.70844 182:-0.17581 183:-0.76447 184:0.42097 185:-1.1805 186:-0.16835 187:0.32361 188:-0.58442 189:-0.69939 190:-0.21042 191:0.21826 192:0.71773 193:-0.26079 194:-0.26494 195:-0.45767 196:-0.51785 197:0.21204 198:-0.14329 199:0.44774 200:0.38847 201:35 202:19 
0 0.2049075033972755 0.009594374838326439 0 1:-0.23769 2:0.59392 3:0.58697 4:-0.041788 5:-0.86803 6:-0.0051122 7:-0.4493 8:-0.027985 9:0.065674 10:-0.37901 11:0.31175 12:0.20528 13:0.431 14:-0.30913 15:-0.084523 16:0.056902 17:0.34704 18:0.32332 19:-0.60413 20:0.23123 21:-0.095476 22:-0.50009 23:0.024528 24:-0.5819 25:0.0075945 26:-0.13871 27:-0.26417 28:-0.7827 29:-0.24024 30:0.081827 31:-0.1867 32:0.95404 33:-0.057412 34:0.0089747 35:-0.20492 36:0.060902 37:-0.018265 38:0.3349 39:0.2373 40:-0.17605 41:-0.54013 42:-0.32745 43:-0.088963 44:-0.38417 45:-1.0903 46:0.17028 47:-0.019269 48:-0.35687 49:-0.0084772 50:-0.81525 51:0.23428 52:0.11118 53:0.42356 54:1.111 55:-0.35535 56:-2.3889 57:0.6203 58:-0.16352 59:1.445 60:0.58333 61:-0.22946 62:1.4375 63:-0.063997 64:-0.31511 65:1.0875 66:0.39221 67:0.73147 68:0.57236 69:-0.050781 70:-0.027736 71:0.41085 72:-0.25076 73:-0.26331 74:-0.38682 75:0.50667 76:-0.178 77:0.018334 78:-0.64042 79:-0.83078 80:0.26167 81:0.7191 82:0.1505 83:-0.67532 84:-0.1487 85:-2.1266 86:-0.58562 87:-0.12433 88:-0.32622 89:-1.0088 90:-0.65506 91:0.12711 92:0.227 93:-0.26423 94:-0.44033 95:-0.45518 96:-0.28702 97:-0.48125 98:-0.58302 99:0.20035 100:0.50308 101:-0.24149 102:0.43733 103:-0.32623 104:-0.18897 105:-0.29305 106:-0.28223 107:-0.37429 108:0.47172 109:-0.61045 110:-0.17059 111:-0.05528 112:0.74618 113:0.61522 114:0.29321 115:0.23069 116:-0.40869 117:0.24888 118:-0.48797 119:0.00048047 120:-0.54519 121:0.52164 122:0.73132 123:-0.0010567 124:0.10601 125:0.84546 126:0.49301 127:-0.92694 128:-0.56454 129:-0.073725 130:0.087184 131:-0.17091 132:0.29569 133:0.41866 134:-0.35302 135:0.33314 136:0.23985 137:0.51223 138:0.31759 139:0.36975 140:0.52439 141:-0.15201 142:-0.5523 143:0.41703 144:-0.13236 145:0.095632 146:-0.4792 147:0.82726 148:-0.41113 149:0.24488 150:-0.11884 151:0.25559 152:-0.55004 153:0.48753 154:1.2109 155:0.41641 156:-2.8652 157:0.26831 158:-0.094585 159:1.8959 160:0.43377 161:-0.17049 162:0.82421 163:0.10373 164:-0.18124 165:0.63302 166:-0.02878 167:0.66535 168:0.12374 169:-0.08893 170:-0.18875 171:0.26731 172:0.13841 173:-0.1126 174:-0.3464 175:-0.044674 176:-0.45838 177:-0.66339 178:-0.018257 179:-0.89461 180:-0.27158 181:0.70234 182:-0.077111 183:-0.35251 184:0.1509 185:-1.7293 186:0.20593 187:-0.23115 188:0.079508 189:-0.092586 190:-0.11143 191:-0.18736 192:0.32542 193:-0.38972 194:-0.37078 195:-0.65679 196:-0.082912 197:-0.51918 198:-0.34876 199:0.23791 200:0.21206 201:35 202:19 
0 0 0 1 1:0.03024 2:0.44606 3:0.43166 4:-0.37528 5:0.29068 6:0.23032 7:0.18125 8:0.40201 9:0.13518 10:-0.19562 11:0.30639 12:-0.13239 13:0.67897 14:0.42234 15:0.32637 16:-0.15281 17:0.37698 18:-0.23303 19:-0.33817 20:0.30588 21:0.44918 22:-0.83624 23:0.59146 24:0.24958 25:0.39986 26:-0.50172 27:-0.23544 28:-0.14696 29:-0.35144 30:-0.56852 31:0.08954 32:0.82612 33:-0.26586 34:0.3903 35:-0.036849 36:0.48257 37:0.71664 38:0.11004 39:-0.59354 40:-0.33216 41:-0.25736 42:-0.34531 43:-0.026326 44:-0.23747 45:0.00019656 46:-0.2748 47:0.38512 48:-0.39581 49:0.11404 50:-0.25174 51:-0.3247 52:0.089608 53:0.24929 54:1.5127 55:-0.19762 56:-2.8509 57:-0.53833 58:-0.47111 59:1.7859 60:0.78126 61:-0.12963 62:0.56077 63:0.32151 64:0.35571 65:0.84547 66:0.14931 67:0.11487 68:0.30625 69:0.54774 70:-0.50426 71:0.33824 72:-0.62043 73:-0.012869 74:0.066666 75:0.062731 76:-0.44534 77:0.15541 78:0.21801 79:-1.732 80:0.42054 81:0.36319 82:-0.072258 83:-0.74811 84:0.19888 85:-1.4461 86:-0.27576 87:0.26646 88:-0.57838 89:0.56151 90:-0.028701 91:-0.2466 92:-0.425 93:-0.57154 94:0.31939 95:-0.22075 96:0.46528 97:-0.16606 98:-0.79923 99:0.80849 100:0.37378 101:0.15542 102:0.22266 103:0.66749 104:-0.10515 105:-0.13068 106:0.37393 107:-0.17058 108:0.009149 109:0.076113 110:-0.11288 111:-0.14282 112:0.044725 113:0.23126 114:-0.24242 115:0.29379 116:-0.18357 117:0.1357 118:0.35516 119:-0.58844 120:0.23293 121:0.58574 122:0.33664 123:0.34024 124:-0.22089 125:0.12549 126:0.25051 127:-0.41115 128:-0.53115 129:0.069639 130:-0.37244 131:-0.46644 132:0.69798 133:0.12978 134:-0.20145 135:0.13568 136:0.076107 137:-0.50561 138:-0.053813 139:0.044468 140:-0.26587 141:-0.55276 142:-0.30575 143:-0.054521 144:-0.12123 145:-0.74521 146:0.44949 147:0.26413 148:-0.26995 149:0.0029227 150:-0.69914 151:-0.102 152:0.04372 153:0.29726 154:1.2991 155:-0.2306 156:-2.7697 157:0.1016 158:0.25055 159:1.8448 160:0.13651 161:-0.39607 162:0.70957 163:-0.14062 164:0.1244 165:0.82492 166:0.029879 167:0.31792 168:0.40967 169:-0.18953 170:-0.58943 171:0.093985 172:-0.55381 173:0.041654 174:-0.93166 175:0.35255 176:-0.34163 177:-0.078994 178:-0.12563 179:-0.37184 180:0.026071 181:0.49271 182:0.47599 183:-0.48877 184:0.068624 185:-1.6429 186:0.14407 187:0.092517 188:-0.16273 189:-0.63504 190:-0.51367 191:-0.29237 192:-0.319 193:-0.25062 194:0.085763 195:-0.50163 196:-0.14954 197:-0.078231 198:-0.25213 199:0.38793 200:0.83459 201:32 202:11 
0 0.09786577232342071 0 0 1:0.03024 2:0.44606 3:0.43166 4:-0.37528 5:0.29068 6:0.23032 7:0.18125 8:0.40201 9:0.13518 10:-0.19562 11:0.30639 12:-0.13239 13:0.67897 14:0.42234 15:0.32637 16:-0.15281 17:0.37698 18:-0.23303 19:-0.33817 20:0.30588 21:0.44918 22:-0.83624 23:0.59146 24:0.24958 25:0.39986 26:-0.50172 27:-0.23544 28:-0.14696 29:-0.35144 30:-0.56852 31:0.08954 32:0.82612 33:-0.26586 34:0.3903 35:-0.036849 36:0.48257 37:0.71664 38:0.11004 39:-0.59354 40:-0.33216 41:-0.25736 42:-0.34531 43:-0.026326 44:-0.23747 45:0.00019656 46:-0.2748 47:0.38512 48:-0.39581 49:0.11404 50:-0.25174 51:-0.3247 52:0.089608 53:0.24929 54:1.5127 55:-0.19762 56:-2.8509 57:-0.53833 58:-0.47111 59:1.7859 60:0.78126 61:-0.12963 62:0.56077 63:0.32151 64:0.35571 65:0.84547 66:0.14931 67:0.11487 68:0.30625 69:0.54774 70:-0.50426 71:0.33824 72:-0.62043 73:-0.012869 74:0.066666 75:0.062731 76:-0.44534 77:0.15541 78:0.21801 79:-1.732 80:0.42054 81:0.36319 82:-0.072258 83:-0.74811 84:0.19888 85:-1.4461 86:-0.27576 87:0.26646 88:-0.57838 89:0.56151 90:-0.028701 91:-0.2466 92:-0.425 93:-0.57154 94:0.31939 95:-0.22075 96:0.46528 97:-0.16606 98:-0.79923 99:0.80849 100:0.37378 101:-0.10935 102:0.57109 103:0.98214 104:-0.070305 105:0.27466 106:0.13901 107:-0.6725 108:0.49899 109:0.21726 110:0.57449 111:-0.43821 112:0.13026 113:0.25537 114:-0.062223 115:-0.52117 116:-0.19787 117:0.67209 118:-0.43658 119:-0.59177 120:0.063773 121:0.46073 122:0.66708 123:1.1919 124:-0.19182 125:-0.13415 126:-0.045557 127:0.052066 128:-0.37631 129:0.49671 130:0.13239 131:0.22187 132:0.12634 133:0.34833 134:0.096496 135:0.28304 136:0.26515 137:0.41935 138:0.27191 139:-0.78991 140:-0.57656 141:-0.97647 142:0.23095 143:0.48374 144:0.031668 145:0.33351 146:-0.027533 147:0.61034 148:-0.4384 149:0.0063261 150:-0.97056 151:-0.71083 152:-0.1317 153:-0.047665 154:1.1634 155:0.035339 156:-2.5317 157:-0.21682 158:0.082702 159:2.1301 160:0.59453 161:0.1801 162:0.30265 163:-0.12746 164:-0.6372 165:0.68515 166:0.51137 167:0.19605 168:0.22645 169:0.84234 170:-0.45817 171:0.30016 172:-0.28873 173:-0.64023 174:-0.034291 175:0.66036 176:-0.090798 177:-0.32405 178:0.28764 179:-0.9558 180:0.057511 181:1.1268 182:0.262 183:-0.23766 184:0.33101 185:-0.71519 186:0.037798 187:-0.40321 188:-0.11256 189:-0.37912 190:-0.43801 191:-0.14248 192:0.21925 193:-0.35928 194:-0.032169 195:-1.2293 196:0.20613 197:-0.20616 198:-0.5839 199:0.66622 200:0.22983 201:32 202:11 
1 0.7720289084714075 0.09240825376337355 0.2182343653951877 1:-0.1518 2:0.38409 3:0.8934 4:-0.42421 5:-0.92161 6:0.037988 7:-0.32026 8:0.0034119 9:0.22101 10:-0.22045 11:0.16661 12:0.21956 13:0.25325 14:-0.29267 15:0.10171 16:-0.075491 17:-0.060406 18:0.28194 19:-0.58519 20:0.48271 21:0.017504 22:-0.12086 23:-0.1099 24:-0.69554 25:0.156 26:0.070558 27:-0.15058 28:-0.81811 29:-0.18535 30:-0.36863 31:0.03165 32:0.76616 33:0.084041 34:0.0026928 35:-0.2744 36:0.21815 37:-0.035157 38:0.32569 39:0.10032 40:-0.60932 41:-0.70316 42:0.18299 43:0.33134 44:-0.12416 45:-0.90542 46:-0.039157 47:0.44719 48:-0.57338 49:-0.40172 50:-0.82234 51:0.5574 52:0.15101 53:0.24598 54:1.0113 55:-0.46626 56:-2.7133 57:0.43273 58:-0.16314 59:1.5828 60:0.55081 61:-0.24738 62:1.4184 63:-0.016867 64:-0.19368 65:1.009 66:-0.059864 67:0.91853 68:0.43022 69:-0.20624 70:0.076127 71:0.21595 72:-0.26834 73:-0.33342 74:-0.37151 75:0.45197 76:-0.08246 77:0.32984 78:-0.57376 79:-1.3042 80:0.27121 81:0.66277 82:-0.079626 83:-0.79167 84:-0.0053662 85:-1.7916 86:-0.33298 87:-0.30698 88:-0.3398 89:-0.55618 90:-0.69471 91:0.27427 92:-0.21898 93:-0.26714 94:0.0022561 95:-0.50178 96:-0.32775 97:-0.4567 98:-0.27123 99:0.22157 100:0.92112 101:1.1546 102:0.74304 103:0.17122 104:-0.51363 105:0.14854 106:-0.30961 107:-0.78899 108:0.58912 109:-0.94557 110:0.134 111:0.41047 112:0.10553 113:0.39751 114:-0.48708 115:-1.2444 116:0.025177 117:0.32033 118:0.54594 119:-1.1652 120:-0.91092 121:-0.55536 122:0.53546 123:0.29106 124:0.91729 125:-0.16066 126:-0.29811 127:-0.30661 128:-0.31283 129:0.52233 130:-0.4714 131:-0.93854 132:-0.09827 133:-0.033038 134:0.036152 135:0.72174 136:-0.67181 137:-0.49148 138:1.2817 139:-1.3187 140:0.2784 141:-0.098132 142:-0.61443 143:0.72736 144:-0.70795 145:1.003 146:0.66784 147:0.11311 148:-0.99167 149:0.12644 150:-0.77265 151:-0.0026361 152:-0.17745 153:0.50225 154:0.70677 155:0.25219 156:-2.557 157:-0.052072 158:1.3905 159:1.2718 160:0.21773 161:-0.71183 162:0.30603 163:0.57883 164:0.31517 165:0.45509 166:-0.24592 167:-0.12333 168:0.62444 169:-0.12891 170:-0.31201 171:-0.26758 172:-0.57034 173:-0.61044 174:0.89724 175:0.60518 176:0.4957 177:0.75435 178:-0.444 179:-0.77071 180:-0.51208 181:0.17219 182:-0.44419 183:0.42079 184:0.1403 185:-0.48294 186:0.18963 187:-0.48081 188:0.73369 189:0.55836 190:-0.034938 191:0.36117 192:0.74741 193:0.36025 194:0.34972 195:0.12527 196:-0.12949 197:-1.1231 198:0.46253 199:0.24988 200:0.27218 201:33 202:6 
